svm_type c_svc
kernel_type rbf
gamma 0.69999999999999996
nr_class 2
total_sv 16630
rho 0.97716788067959093
label 1 -1
nr_sv 7196 9434
SV
1 1:0.0205499 2:1.20562 3:-0.392392 4:6.70147 5:0.960225 6:3.74389 7:-3.03969 8:2.23034 
1 1:-0.13213 2:0.95413 3:-0.00268174 4:-3.64843 5:-1.18675 6:0.818672 7:-2.91902 8:6.4682 
1 1:0.0572762 2:1.18204 3:0.0252223 4:-1.65152 5:-1.29678 6:-2.78052 7:-2.90786 8:-18.0001 
1 1:-0.491299 2:0.107105 3:0.442275 4:4.98041 5:0.160911 6:-1.53249 7:1.37377 8:-1.36975 
1 1:0.0204781 2:1.59301 3:-2.51536 4:-2.2213 5:0.913241 6:4.06633 7:3.04259 8:10.465 
1 1:-0.112301 2:1.61461 3:-1.99884 4:-4.13845 5:-1.45491 6:-6.53869 7:-1.02144 8:1.84193 
1 1:-0.312522 2:0.740775 3:0.170079 4:1.1856 5:-0.612033 6:-6.30852 7:-0.80735 8:9.25939 
0.91695454544731314 1:-0.55452 2:1.14454 3:1.07875 4:-6.7753 5:-0.0729688 6:-6.32866 7:1.43072 8:12.4987 
0.077990983170362127 1:-0.226055 2:1.08341 3:-1.867 4:5.50433 5:0.321803 6:-4.87862 7:1.6202 8:-13.1939 
1 1:-0.375577 2:0.56162 3:-0.264609 4:-0.357557 5:0.821919 6:-2.73651 7:2.10198 8:0.248327 
1 1:-0.736956 2:1.19877 3:-1.06263 4:0.839292 5:1.3571 6:-3.67105 7:2.30346 8:-16.7853 
1 1:-0.51483 2:0.760991 3:0.746542 4:-4.73834 5:-1.18807 6:-3.32612 7:1.70575 8:16.2774 
0.22986045120431264 1:0.0203247 2:1.34383 3:0.850489 4:-6.83932 5:0.0424062 6:-4.70263 7:1.50708 8:0.572276 
1 1:-0.226468 2:2.20103 3:-2.72528 4:4.5581 5:0.751009 6:-0.573238 7:-2.00085 8:9.72779 
0.15803410978996063 1:0.0777013 2:1.34699 3:-0.937816 4:-6.09264 5:0.741017 6:-4.52887 7:1.99771 8:-6.53753 
1 1:-0.237205 2:1.04092 3:-0.168384 4:1.48438 5:-0.400306 6:-1.65561 7:-0.641743 8:-8.98488 
0.5500562788406218 1:-0.342962 2:1.25754 3:-1.87437 4:2.99435 5:1.405 6:4.23761 7:2.16141 8:3.86541 
1 1:0.0444754 2:0.846101 3:-1.02101 4:-2.6442 5:1.21264 6:-4.9129 7:3.10506 8:-12.9218 
0.77049370368864567 1:0.0966223 2:1.48455 3:-1.80576 4:1.62096 5:0.250327 6:3.98582 7:2.36918 8:13.9959 
0.39771145369505917 1:0.106826 2:0.920548 3:-2.58895 4:3.07004 5:0.455698 6:2.4311 7:2.51544 8:-4.33713 
1 1:0.133607 2:1.87158 3:0.624997 4:6.55827 5:-1.41833 6:-3.10381 7:0.359116 8:-11.863 
0.41495303180064091 1:-0.286571 2:1.46858 3:-2.59064 4:2.69155 5:-0.478456 6:1.09558 7:1.80686 8:-5.81108 
1 1:-0.179818 2:0.637489 3:-0.915094 4:-4.46688 5:-1.56383 6:5.85874 7:2.95971 8:-4.44262 
0.60101913307468458 1:0.191995 2:0.940377 3:0.222554 4:-4.53468 5:-1.5333 6:-5.70437 7:1.26309 8:-5.33212 
0.48623583385124591 1:-0.194491 2:0.753199 3:-0.248019 4:2.28451 5:-1.14384 6:0.619478 7:-1.0303 8:0.751653 
1 1:-0.405581 2:-0.0166333 3:0.480398 4:-5.04822 5:0.215123 6:-3.74593 7:-2.4556 8:-3.42076 
1 1:-0.0891413 2:1.26917 3:-1.84884 4:-5.12494 5:1.34025 6:-0.797372 7:0.346816 8:13.5383 
1 1:-0.664914 2:1.67932 3:-2.10108 4:-4.74906 5:1.22522 6:-1.10622 7:0.176775 8:13.8008 
1 1:0.335116 2:0.931134 3:-1.16041 4:-3.64817 5:0.788717 6:-4.84324 7:1.29145 8:8.73647 
1 1:-0.0739275 2:0.857678 3:-2.00059 4:-2.18921 5:0.932975 6:-4.04665 7:2.51717 8:8.05682 
1 1:0.195032 2:0.762277 3:-2.56315 4:-3.27111 5:0.797599 6:-5.81601 7:2.38901 8:7.94071 
0.22762261100034789 1:-0.223212 2:1.87121 3:-0.55568 4:-1.94348 5:1.07772 6:2.46259 7:0.557822 8:-12.1021 
1 1:0.170377 2:1.86988 3:-0.708934 4:1.73837 5:-0.858848 6:3.36404 7:0.145635 8:-2.44466 
1 1:0.179094 2:1.90631 3:-1.25542 4:1.56912 5:-0.479811 6:3.04163 7:0.295948 8:-3.00137 
1 1:-0.0306572 2:1.86286 3:-0.41896 4:1.18667 5:-1.00086 6:2.94667 7:0.0898581 8:-2.84979 
1 1:-0.027266 2:1.75202 3:-0.863052 4:0.881901 5:-0.867471 6:2.82362 7:-0.000842373 8:-2.54811 
1 1:0.156954 2:1.90089 3:-0.629085 4:1.15014 5:-0.911881 6:3.03672 7:0.0641609 8:-2.82739 
1 1:0.15865 2:1.84548 3:-0.851131 4:0.997758 5:-0.845184 6:2.9752 7:0.0188107 8:-2.67655 
1 1:-0.356691 2:1.87716 3:0.698876 4:-2.72934 5:0.521312 6:-5.21773 7:0.249018 8:16.8698 
1 1:-0.546585 2:0.571679 3:0.442912 4:-0.992322 5:1.22637 6:5.05841 7:0.0922266 8:8.27995 
1 1:-0.133835 2:0.323218 3:0.919511 4:-0.570856 5:1.43826 6:4.38099 7:0.464683 8:8.36242 
1 1:-0.0943055 2:0.203285 3:0.657772 4:-0.61042 5:1.26568 6:4.62581 7:-0.017397 8:8.40184 
1 1:-0.137805 2:0.868144 3:-1.16253 4:3.38411 5:-1.11776 6:-3.69954 7:-2.73 8:-5.42962 
0.14211396431344064 1:-0.529233 2:1.52519 3:-2.42507 4:2.50225 5:0.50299 6:3.52366 7:1.78711 8:-3.82118 
1 1:-0.317159 2:1.08124 3:-2.46753 4:2.56946 5:0.456116 6:3.34611 7:2.51063 8:-4.19449 
1 1:-0.635188 2:1.38356 3:-2.38559 4:2.28556 5:0.479762 6:3.89239 7:2.14646 8:-3.93652 
1 1:-0.626114 2:1.32497 3:-2.20977 4:2.00641 5:0.339492 6:4.10869 7:2.22958 8:-3.92055 
1 1:-0.646798 2:1.3209 3:-2.2618 4:2.06334 5:0.382377 6:4.09804 7:2.26176 8:-3.94509 
1 1:-0.771747 2:1.09214 3:1.01035 4:4.40164 5:-0.648245 6:-3.55798 7:1.19086 8:-18.1849 
1 1:0.138 2:0.728778 3:-0.714676 4:-4.40042 5:0.0739757 6:6.79339 7:2.19118 8:-8.74613 
1 1:0.318702 2:1.33669 3:-1.93955 4:-4.54444 5:-0.534247 6:5.47703 7:1.14849 8:-9.13015 
1 1:-0.620554 2:1.15165 3:-1.16122 4:-0.730697 5:1.39812 6:3.15769 7:-0.026618 8:-10.8617 
1 1:0.210086 2:1.95094 3:-2.4793 4:-0.160698 5:1.3633 6:-1.81193 7:0.721725 8:6.33015 
0.80245091650341405 1:-0.223506 2:-0.0735688 3:0.867898 4:-6.0219 5:0.415559 6:2.3381 7:0.231328 8:6.5148 
1 1:-0.282125 2:-0.0808435 3:0.8345 4:-6.07463 5:0.523322 6:2.35131 7:0.24181 8:6.57556 
1 1:-0.663331 2:1.37697 3:-0.0225836 4:2.10417 5:-0.891128 6:-6.26678 7:1.49677 8:3.7793 
0.19873549874591548 1:-0.207309 2:1.82307 3:0.560518 4:-2.70582 5:0.508453 6:-5.42725 7:0.443512 8:16.6772 
1 1:-0.207309 2:1.82307 3:0.560518 4:-2.70582 5:0.508453 6:-5.42725 7:0.443512 8:16.6772 
1 1:-0.0579271 2:1.76898 3:0.42216 4:-2.6823 5:0.495593 6:-5.63678 7:0.638007 8:16.4846 
1 1:-0.234769 2:0.968743 3:-2.75781 4:5.282 5:-1.09944 6:-0.834213 7:2.43021 8:-15.2346 
1 1:-0.387649 2:1.16221 3:-1.04347 4:-4.27458 5:0.98851 6:-1.46072 7:-1.25155 8:13.0277 
1 1:-0.171138 2:1.21699 3:-0.796888 4:-4.20595 5:0.926241 6:-1.37859 7:-1.4052 8:12.6972 
1 1:0.147125 2:0.725968 3:-0.26525 4:-4.19096 5:0.896534 6:-1.44248 7:-1.95752 8:12.3446 
1 1:-0.0693853 2:0.671186 3:-0.511831 4:-4.2596 5:0.958803 6:-1.52461 7:-1.80386 8:12.6751 
1 1:-0.592556 2:1.31559 3:-0.894646 4:5.71495 5:0.635008 6:4.3403 7:-2.6085 8:2.38445 
1 1:-0.745177 2:-0.00987536 3:0.674693 4:4.19487 5:-0.278171 6:-2.99464 7:1.15166 8:-17.4994 
1 1:-0.556805 2:1.05886 3:-0.37053 4:-1.1263 5:-0.674775 6:-1.93486 7:2.81159 8:14.9028 
1 1:-0.485954 2:0.881614 3:0.600882 4:-0.405879 5:-0.765257 6:-2.10584 7:2.65536 8:14.5787 
1 1:-0.282474 2:1.79313 3:-1.69768 4:-6.35793 5:-0.319914 6:3.62806 7:-0.550285 8:-1.8591 
1 1:-0.632609 2:0.938209 3:-0.0937808 4:-0.417017 5:0.591213 6:2.37091 7:0.968927 8:-13.8462 
1 1:-0.397331 2:1.49168 3:-0.165017 4:0.800884 5:-0.384738 6:2.99486 7:1.78023 8:-13.6773 
1 1:0.020117 2:1.05739 3:-0.559192 4:1.01893 5:0.221097 6:-3.71914 7:-1.97029 8:14.8012 
1 1:0.0362833 2:0.736868 3:-0.390942 4:1.08814 5:-0.249857 6:-3.89366 7:-1.65544 8:14.6209 
1 1:-0.127714 2:0.723577 3:-0.190635 4:1.13889 5:-0.47464 6:-3.76356 7:-1.71484 8:14.5253 
0.96975163600607983 1:0.00219947 2:0.675107 3:-0.39326 4:1.10722 5:-0.306179 6:-3.90004 7:-1.62229 8:14.6204 
1 1:0.138108 2:1.83184 3:-1.71841 4:-0.790158 5:-0.420037 6:-6.01609 7:-0.414062 8:-7.01918 
0.71072721644570502 1:-0.176258 2:1.64515 3:-1.65353 4:-0.486675 5:-0.521068 6:4.30621 7:-1.02294 8:-5.1947 
1 1:0.0607519 2:1.18494 3:-1.20071 4:-0.0274147 5:-0.443751 6:5.88252 7:-1.57762 8:-4.41877 
1 1:-0.313793 2:0.830459 3:-0.187992 4:-6.09423 5:-0.522885 6:6.75264 7:1.14001 8:-13.1314 
1 1:-0.0827819 2:1.41017 3:0.165039 4:-5.94862 5:-0.830523 6:6.86623 7:1.70931 8:-13.6591 
1 1:0.195021 2:-0.00697545 3:0.448051 4:0.788649 5:-1.31698 6:-0.396716 7:2.26844 8:7.97107 
1 1:-0.136105 2:0.121029 3:0.0487091 4:0.988628 5:-1.29792 6:-0.958476 7:2.63034 8:8.05766 
1 1:-0.312189 2:0.0977294 3:0.0304718 4:1.60138 5:-0.99702 6:-1.42199 7:2.66501 8:7.98235 
1 1:-0.0258416 2:1.31112 3:-0.336978 4:1.99396 5:1.24418 6:0.790959 7:-0.459492 8:2.66379 
1 1:0.175117 2:1.10369 3:-0.317127 4:2.08485 5:1.23784 6:0.67279 7:-0.611149 8:2.70312 
1 1:0.215523 2:1.5605 3:0.115134 4:6.59526 5:-1.26122 6:-2.4093 7:1.23739 8:-8.7974 
1 1:0.179887 2:0.616061 3:0.259563 4:6.80756 5:-0.953042 6:-2.2853 7:-0.774821 8:-2.92357 
1 1:0.319621 2:1.24208 3:-2.14394 4:1.88702 5:-1.05238 6:-6.32775 7:1.03859 8:16.0481 
1 1:-0.531705 2:2.15783 3:-2.6088 4:3.05313 5:-0.435087 6:-6.29701 7:0.395601 8:15.6028 
1 1:-0.139426 2:1.86272 3:-2.42782 4:2.56552 5:-0.879205 6:-6.50681 7:1.20002 8:15.7529 
1 1:-0.024639 2:1.22097 3:-0.147475 4:5.43462 5:-0.743305 6:4.77868 7:0.752908 8:-15.9151 
1 1:-0.585595 2:0.803376 3:-0.113819 4:-0.366556 5:0.984453 6:-5.94435 7:0.864047 8:-15.5166 
1 1:0.125569 2:1.96646 3:-2.38495 4:-1.63297 5:-0.0745118 6:-5.32058 7:-0.280382 8:-7.0115 
1 1:0.119299 2:2.03377 3:-2.71822 4:-2.05437 5:0.0982509 6:-4.97283 7:-0.213542 8:-7.00766 
1 1:0.197999 2:2.09533 3:-2.86784 4:-2.21481 5:0.193861 6:-4.75922 7:-0.222273 8:-7.03314 
1 1:0.116164 2:2.06742 3:-2.88486 4:-2.26507 5:0.184632 6:-4.79895 7:-0.180122 8:-7.00574 
1 1:0.0656693 2:1.10602 3:-1.82763 4:2.65984 5:0.376153 6:6.40326 7:0.575172 8:12.0828 
1 1:-0.0414681 2:0.824112 3:-2.27572 4:4.05335 5:0.208441 6:6.22535 7:1.56866 8:11.8467 
1 1:0.21995 2:1.66018 3:-2.5992 4:3.18563 5:-0.591526 6:5.98669 7:0.707993 8:11.114 
1 1:0.20762 2:1.71014 3:-2.48125 4:3.38736 5:-0.607267 6:6.27927 7:0.605977 8:11.2678 
1 1:0.31507 2:1.77899 3:-2.66427 4:3.27434 5:-0.549649 6:6.14933 7:0.727808 8:11.0799 
1 1:0.255686 2:1.72244 3:-0.537463 4:2.18247 5:-0.487552 6:3.21985 7:0.237009 8:-7.42611 
1 1:-0.668304 2:1.27113 3:-1.70729 4:-4.6451 5:-0.1833 6:5.55967 7:1.96592 8:7.98981 
1 1:-0.559307 2:1.29033 3:-2.76264 4:-2.56775 5:-0.487642 6:2.93323 7:0.726724 8:5.48962 
1 1:-0.588204 2:0.308364 3:0.384886 4:2.10799 5:0.908963 6:4.89462 7:-2.93362 8:10.9212 
1 1:-0.4785 2:1.35434 3:-1.87371 4:3.31949 5:0.0863728 6:0.886445 7:-2.94848 8:-14.45 
1 1:-0.468029 2:1.44686 3:-2.18159 4:2.79452 5:1.14683 6:-6.27648 7:-2.89603 8:4.56209 
1 1:-0.51031 2:0.513594 3:-0.362446 4:-5.04426 5:1.09923 6:3.06021 7:-2.61855 8:-18.538 
1 1:-0.512864 2:0.50904 3:-0.355544 4:-5.0548 5:1.09972 6:3.06033 7:-2.62165 8:-18.5368 
1 1:-0.528189 2:0.481717 3:-0.31413 4:-5.11801 5:1.10265 6:3.06104 7:-2.64022 8:-18.5299 
1 1:-0.417333 2:0.691038 3:-0.212077 4:-5.27327 5:1.20313 6:2.75728 7:-2.62974 8:-18.5378 
1 1:-0.41861 2:0.688761 3:-0.208626 4:-5.27853 5:1.20337 6:2.75734 7:-2.63129 8:-18.5372 
1 1:-0.426272 2:0.6751 3:-0.187919 4:-5.31014 5:1.20483 6:2.7577 7:-2.64058 8:-18.5337 
1 1:-0.449314 2:1.8462 3:-0.43117 4:5.20788 5:-0.590009 6:4.87969 7:0.660962 8:-16.0777 
1 1:-0.644474 2:0.211561 3:0.418561 4:0.0363941 5:0.493491 6:4.36053 7:2.13432 8:3.7823 
1 1:-0.336911 2:1.32182 3:-1.27898 4:4.28935 5:1.44007 6:6.12986 7:-1.5457 8:-17.6584 
1 1:-0.661417 2:0.8335 3:-0.496841 4:1.94733 5:-0.0995208 6:-3.81818 7:2.36142 8:2.74043 
1 1:-0.454822 2:0.630287 3:-0.521588 4:1.2915 5:0.443384 6:-2.86222 7:2.63611 8:1.97509 
1 1:-0.571327 2:0.743338 3:-0.552044 4:1.89426 5:0.108842 6:-3.36116 7:2.58778 8:2.64555 
0.59168235933518287 1:-0.468029 2:0.641732 3:-0.564418 4:1.56635 5:0.380295 6:-2.88318 7:2.72513 8:2.26288 
1 1:-0.551426 2:0.639115 3:-0.562429 4:1.75922 5:0.171724 6:-3.19758 7:2.61464 8:2.49366 
1 1:-0.42235 2:0.940061 3:-0.651347 4:5.36559 5:0.161281 6:-4.53908 7:1.37897 8:-12.3866 
1 1:0.385389 2:1.20789 3:0.533584 4:5.34107 5:-0.523584 6:-4.31399 7:1.58222 8:-11.441 
1 1:0.0823762 2:1.77145 3:0.460417 4:1.13499 5:-0.0583867 6:-1.96786 7:0.00490325 8:-8.60515 
1 1:-0.523195 2:0.820379 3:-0.0128736 4:-0.367696 5:0.111956 6:0.177441 7:-0.474084 8:-13.793 
1 1:-0.412527 2:0.610961 3:-0.235081 4:-0.249497 5:0.0977399 6:-0.947311 7:0.0187063 8:-14.1584 
1 1:-0.334642 2:0.95326 3:-0.673438 4:-3.41267 5:-0.978711 6:1.21842 7:-2.63618 8:7.89336 
1 1:-0.142446 2:0.600974 3:-0.393037 4:-3.44706 5:-0.939945 6:1.07985 7:-2.65505 8:6.39187 
1 1:-0.024564 2:0.798088 3:-0.458138 4:-3.60497 5:-1.20428 6:1.07277 7:-2.79848 8:6.48237 
1 1:-0.182758 2:0.953913 3:-0.170371 4:-3.58949 5:-1.13474 6:0.918608 7:-2.84831 8:6.82449 
1 1:-0.0783471 2:0.876109 3:-0.23041 4:-3.6267 5:-1.19552 6:0.945719 7:-2.85875 8:6.47528 
1 1:0.107949 2:1.0751 3:-1.00333 4:0.0178483 5:-0.459321 6:6.06873 7:-1.61641 8:-4.72976 
1 1:0.0482156 2:1.45002 3:-1.39364 4:4.56548 5:-0.741055 6:6.10647 7:-0.214231 8:-9.49242 
1 1:0.137394 2:1.47331 3:-1.66382 4:-4.36365 5:-0.808202 6:-3.51355 7:-0.112322 8:11.5672 
0.0058620128075991818 1:0.144104 2:1.45774 3:-1.67914 4:-4.32318 5:-0.811634 6:-3.54125 7:-0.134304 8:11.5562 
0.72686361422654111 1:0.182026 2:1.46962 3:-1.72819 4:-4.39508 5:-0.882315 6:-3.62265 7:-0.0312277 8:11.4657 
1 1:-0.435481 2:1.85094 3:-1.94513 4:-4.18754 5:-1.08321 6:-4.63286 7:-0.0325186 8:12.6019 
1 1:-0.661575 2:1.47483 3:-1.89652 4:-4.37409 5:-1.22522 6:-4.37606 7:0.489436 8:12.5801 
1 1:0.223466 2:0.829601 3:0.271738 4:-5.14866 5:-1.13432 6:-4.40086 7:1.58399 8:16.4298 
1 1:-0.577231 2:2.1506 3:-2.73647 4:5.82391 5:-0.375926 6:3.45825 7:2.58207 8:-5.1466 
0.44334806556326928 1:-0.461212 2:0.952716 3:-1.09266 4:-3.26533 5:-0.848686 6:1.46826 7:-2.4594 8:8.78409 
1 1:-0.486526 2:0.952608 3:-1.1765 4:-3.23586 5:-0.822681 6:1.51823 7:-2.42404 8:8.96223 
0.68010623581428498 1:0.145571 2:1.10898 3:-0.0451531 4:1.78339 5:0.192533 6:-4.60213 7:2.66943 8:3.9643 
1 1:0.144614 2:1.38072 3:0.191976 4:1.86181 5:-0.20327 6:-5.82643 7:2.2371 8:4.48374 
1 1:-0.0329464 2:1.86596 3:-2.74302 4:3.04969 5:-0.387536 6:3.43475 7:0.750259 8:17.452 
0.14374948536287968 1:-0.0075734 2:1.85819 3:-2.74541 4:3.04615 5:-0.39573 6:3.45081 7:0.754409 8:17.4116 
1 1:0.173723 2:0.732073 3:-0.239923 4:5.83018 5:0.357344 6:-5.52706 7:-1.7833 8:-2.15916 
1 1:-0.0813321 2:1.80008 3:-2.23513 4:-3.57456 5:-0.69857 6:-6.68434 7:-1.51945 8:-10.9037 
1 1:-0.126495 2:1.87044 3:-2.23539 4:-3.616 5:-0.7025 6:-6.70523 7:-1.59258 8:-10.701 
1 1:-0.558042 2:0.014735 3:0.439899 4:4.98803 5:0.33794 6:-1.56421 7:1.28319 8:-0.919474 
1 1:-0.52467 2:0.0609198 3:0.441087 4:4.98422 5:0.249425 6:-1.54835 7:1.32848 8:-1.14461 
1 1:-0.0266973 2:1.38956 3:-1.0288 4:1.11051 5:0.861316 6:1.18206 7:-1.59913 8:-17.8321 
1 1:0.29274 2:1.35314 3:1.04119 4:4.57063 5:-0.814202 6:0.48071 7:0.734281 8:2.09023 
1 1:-0.0495315 2:1.86604 3:1.04789 4:4.66425 5:-0.982739 6:0.486334 7:0.574545 8:2.15391 
1 1:0.103909 2:1.73466 3:1.12241 4:4.62401 5:-0.929547 6:0.472537 7:0.83582 8:2.0583 
0.74470599006202121 1:-0.205878 2:1.81815 3:-2.7478 4:-3.49448 5:0.344878 6:-5.02326 7:0.846298 8:-6.90768 
1 1:0.142305 2:1.60558 3:-2.27324 4:-2.00729 5:0.772696 6:4.18145 7:3.03987 8:10.0804 
1 1:0.101696 2:1.60139 3:-2.35395 4:-2.07863 5:0.819544 6:4.14308 7:3.04078 8:10.2086 
1 1:0.101696 2:1.60139 3:-2.35395 4:-2.07863 5:0.819544 6:4.14308 7:3.04078 8:10.2086 
1 1:0.101696 2:1.60139 3:-2.35395 4:-2.07863 5:0.819544 6:4.14308 7:3.04078 8:10.2086 
1 1:0.0915438 2:1.60034 3:-2.37412 4:-2.09646 5:0.831256 6:4.13349 7:3.041 8:10.2406 
1 1:0.0813916 2:1.59929 3:-2.3943 4:-2.1143 5:0.842968 6:4.12389 7:3.04123 8:10.2727 
1 1:0.0473773 2:1.54599 3:-1.9564 4:-3.83708 5:-1.38981 6:-6.30693 7:-0.843039 8:1.94025 
1 1:-0.611025 2:1.10052 3:-2.35234 4:-4.85719 5:0.203275 6:-2.40012 7:1.38639 8:-16.6955 
1 1:-0.625479 2:1.21331 3:-2.57067 4:-4.30904 5:0.507394 6:-2.22902 7:1.69363 8:-16.7571 
0.028860030809096635 1:-0.637865 2:1.46441 3:-2.42908 4:-5.24123 5:-0.262687 6:6.5997 7:2.05229 8:-10.0755 
1 1:-0.544058 2:1.40471 3:-2.50344 4:-5.26038 5:-0.164523 6:6.43579 7:1.93408 8:-10.0067 
1 1:-0.616773 2:1.37325 3:-2.42162 4:-5.36248 5:-0.232615 6:6.57802 7:1.88882 8:-10.1668 
1 1:-0.646453 2:1.44983 3:-2.47426 4:-5.27665 5:-0.21865 6:6.59184 7:2.05054 8:-10.0919 
1 1:-0.655041 2:1.43525 3:-2.51945 4:-5.31206 5:-0.174614 6:6.58398 7:2.0488 8:-10.1084 
1 1:-0.625314 2:1.37624 3:-2.647 4:-5.39247 5:-0.0374594 6:6.4863 7:1.98621 8:-10.1069 
1 1:-0.661671 2:1.36051 3:-2.60609 4:-5.44352 5:-0.0715058 6:6.55742 7:1.96358 8:-10.1869 
1 1:-0.188585 2:1.03242 3:-0.886836 4:-5.42677 5:-0.0816421 6:5.46388 7:1.29426 8:-13.8339 
1 1:-0.285867 2:0.865131 3:-0.735032 4:-5.40045 5:-0.252341 6:5.57206 7:1.3906 8:-13.5623 
0.35945192953281951 1:-0.259477 2:0.928406 3:-0.743845 4:-5.32747 5:-0.261841 6:5.48551 7:1.47078 8:-13.6532 
1 1:0.0236833 2:1.1194 3:-1.10377 4:1.29557 5:0.894123 6:2.03125 7:-1.44611 8:-17.6226 
1 1:-0.442157 2:1.23784 3:-1.05654 4:-6.06837 5:1.0454 6:0.637685 7:0.25105 8:-8.65351 
1 1:-0.632934 2:1.0004 3:-0.510902 4:5.8616 5:0.0870106 6:5.19226 7:-2.56326 8:3.4981 
1 1:0.335843 2:1.36449 3:0.388191 4:3.34829 5:-0.463973 6:-3.49856 7:0.69382 8:7.59262 
1 1:-0.264885 2:0.477735 3:-0.0426739 4:1.20096 5:-0.771312 6:-5.94204 7:-0.802707 8:8.5196 
1 1:-0.051611 2:0.631156 3:-0.0203797 4:0.920789 5:-0.833468 6:-6.17304 7:-0.71174 8:8.59432 
1 1:0.141861 2:0.915836 3:-0.180259 4:1.37876 5:-0.744427 6:-5.91901 7:-0.80313 8:9.20078 
1 1:-0.0853302 2:0.828305 3:-0.00509008 4:1.28218 5:-0.67823 6:-6.11376 7:-0.80524 8:9.23009 
1 1:-0.36046 2:0.959598 3:-1.80299 4:4.18281 5:-0.134554 6:-3.77046 7:2.37375 8:-11.3421 
1 1:-0.249794 2:1.06209 3:-2.0879 4:3.63445 5:-0.327154 6:-3.59554 7:2.74995 8:-10.9884 
0.30579094450417077 1:-0.209934 2:1.10845 3:-1.94245 4:3.65597 5:-0.349495 6:-3.70024 7:2.68935 8:-11.0727 
1 1:-0.216031 2:1.09808 3:-2.05079 4:3.57667 5:-0.3624 6:-3.62603 7:2.76667 8:-10.9863 
1 1:-0.182268 2:1.13407 3:-2.01368 4:3.51888 5:-0.397645 6:-3.65651 7:2.7834 8:-10.9843 
1 1:-0.65363 2:0.918904 3:0.89205 4:-6.75596 5:-0.0304572 6:-6.07745 7:1.28111 8:12.5461 
1 1:-0.580015 2:0.957274 3:0.982699 4:-6.75981 5:-0.0941306 6:-6.17939 7:1.43627 8:12.6453 
1 1:-0.602686 2:0.964927 3:1.03243 4:-6.76596 5:-0.0484999 6:-6.29791 7:1.31472 8:12.6516 
1 1:-0.532712 2:1.47732 3:-1.40509 4:-1.71854 5:-0.926276 6:-2.24066 7:-1.97566 8:-6.78548 
1 1:-0.111369 2:1.65418 3:-2.38331 4:-0.59919 5:-0.906818 6:1.70981 7:2.20551 8:-8.72461 
1 1:0.0845592 2:0.538184 3:0.522387 4:-0.891436 5:-0.38731 6:1.63582 7:2.12213 8:-13.7111 
1 1:0.162765 2:0.428105 3:0.624124 4:-1.1798 5:-0.559057 6:1.47463 7:2.11788 8:-13.7214 
1 1:0.214637 2:0.51327 3:0.498532 4:-1.46263 5:-0.597164 6:1.43185 7:2.11641 8:-13.8885 
1 1:0.0587719 2:1.23301 3:-1.22204 4:-5.7922 5:0.33808 6:-0.820363 7:-1.80957 8:-1.30546 
1 1:-0.297869 2:0.929916 3:-0.847511 4:-6.31833 5:0.324122 6:-0.969018 7:-1.76573 8:-1.86477 
1 1:0.0107548 2:0.183807 3:0.155088 4:0.00364209 5:0.111637 6:0.139771 7:-1.22212 8:10.2081 
1 1:-0.292661 2:0.556028 3:0.211847 4:-5.05575 5:-0.546971 6:0.480584 7:1.11506 8:14.084 
1 1:0.0608765 2:1.1153 3:-1.39486 4:-6.37111 5:-0.108487 6:0.728982 7:1.74811 8:14.1914 
1 1:0.239468 2:0.826272 3:-0.453599 4:5.34049 5:0.928689 6:6.26826 7:-0.95921 8:0.22875 
1 1:0.0227683 2:1.66953 3:-0.477911 4:2.30016 5:0.00141571 6:-1.99493 7:-0.363427 8:-17.8777 
1 1:-0.492056 2:1.51839 3:-0.892854 4:0.592258 5:-0.923189 6:2.44468 7:-0.049975 8:-2.22702 
1 1:-0.585014 2:1.47166 3:-0.898815 4:0.534329 5:-0.934333 6:2.36889 7:-0.0598016 8:-2.1628 
1 1:-0.292514 2:1.98222 3:-1.08356 4:-1.73565 5:-0.742967 6:1.58448 7:-0.00262667 8:12.4162 
1 1:-0.623059 2:0.937674 3:0.407956 4:1.87964 5:0.0339494 6:-2.40383 7:2.52908 8:-11.7655 
1 1:-0.576882 2:1.10561 3:0.355781 4:1.83418 5:0.00843034 6:-2.2743 7:2.56372 8:-11.8251 
1 1:-0.565338 2:1.14759 3:0.342738 4:1.82282 5:0.00205058 6:-2.24192 7:2.57239 8:-11.84 
1 1:-0.553794 2:1.18957 3:0.329694 4:1.81146 5:-0.00432918 6:-2.20954 7:2.58105 8:-11.8549 
1 1:0.155925 2:1.72895 3:-2.51705 4:4.49376 5:-0.96796 6:1.49588 7:-1.52684 8:0.479139 
1 1:-0.480793 2:1.37377 3:-0.966934 4:0.840846 5:0.986829 6:-3.48108 7:2.30031 8:-16.8108 
1 1:-0.608874 2:1.28627 3:-1.01478 4:0.840069 5:1.17197 6:-3.57606 7:2.30188 8:-16.798 
1 1:-0.0212914 2:1.23638 3:-0.121149 4:-5.56584 5:-0.223539 6:-3.94851 7:-0.774341 8:-2.77952 
1 1:-0.345722 2:0.889736 3:-0.741616 4:4.41266 5:0.585344 6:-6.17872 7:-1.87178 8:-2.69578 
1 1:0.140344 2:0.840818 3:-0.458446 4:5.09533 5:-1.0687 6:4.24586 7:-1.24108 8:-12.3051 
0.56468332180107128 1:-0.19485 2:1.12304 3:0.382846 4:-3.71389 5:0.346483 6:4.15044 7:2.95793 8:0.920848 
1 1:-0.266662 2:0.714729 3:-0.698915 4:-2.63962 5:-0.230107 6:4.61335 7:2.60147 8:0.218679 
1 1:0.102938 2:1.66278 3:-2.52749 4:-2.38241 5:0.105726 6:-3.52992 7:-2.43512 8:11.1316 
1 1:0.107593 2:1.67768 3:-2.71047 4:-2.47309 5:0.0351727 6:-3.75931 7:-2.43761 8:11.2355 
1 1:0.0691451 2:1.67959 3:-2.71357 4:-2.50054 5:0.0413834 6:-3.74218 7:-2.42811 8:11.2261 
1 1:-0.100548 2:1.49063 3:-0.505669 4:-4.08066 5:0.583054 6:5.70005 7:2.25585 8:-3.84608 
1 1:0.229696 2:0.810935 3:-0.677287 4:-4.79994 5:-0.435678 6:5.80536 7:2.53334 8:-4.37493 
1 1:0.431648 2:1.07342 3:-0.460694 4:-5.00226 5:0.525764 6:5.78613 7:1.76732 8:-4.22903 
1 1:0.392271 2:0.764728 3:-0.276966 4:-5.10625 5:0.727229 6:5.75983 7:1.91778 8:-4.36726 
1 1:-0.568517 2:1.61117 3:-2.06784 4:2.49379 5:0.48371 6:-5.64412 7:-1.71086 8:16.2015 
1 1:-0.636999 2:1.582 3:-1.87453 4:2.35729 5:0.739898 6:-5.60932 7:-2.03971 8:16.392 
1 1:-0.535134 2:1.4484 3:-2.01639 4:2.39835 5:0.619185 6:-5.44969 7:-2.19378 8:16.274 
1 1:0.12258 2:1.85182 3:-0.401924 4:-1.82761 5:-0.76913 6:1.07217 7:0.454389 8:13.427 
0.026658585019569532 1:0.0388922 2:0.812449 3:0.390439 4:-5.04608 5:-1.14776 6:-4.13217 7:1.61443 8:16.3917 
1 1:-0.618501 2:2.15978 3:-2.71732 4:3.03044 5:-0.907217 6:4.86682 7:1.7729 8:16.8177 
0.10431766684554958 1:0.123116 2:1.18737 3:-0.877931 4:2.40484 5:0.0560997 6:-5.14183 7:-0.637408 8:9.26181 
1 1:-0.113448 2:1.23561 3:-1.0516 4:2.8213 5:0.52256 6:-4.948 7:-0.556657 8:9.32164 
1 1:-0.560914 2:1.59365 3:-0.557427 4:-4.08386 5:-0.0290726 6:5.86262 7:0.822789 8:-3.76383 
1 1:-0.398597 2:1.42957 3:-0.545546 4:-4.47929 5:-0.141072 6:5.92274 7:0.4087 8:-3.91621 
1 1:-0.606158 2:1.5186 3:-0.56676 4:-4.34855 5:-0.307781 6:5.95689 7:0.0690436 8:-3.838 
1 1:-0.733626 2:1.3349 3:1.20616 4:-4.20341 5:0.534837 6:1.16543 7:0.602772 8:4.1637 
1 1:-0.683432 2:1.45286 3:1.22768 4:-4.15485 5:0.452692 6:1.13342 7:0.770184 8:4.30535 
1 1:0.360584 2:-0.0709779 3:0.647722 4:0.68866 5:-1.32651 6:-0.115836 7:2.08749 8:7.92777 
1 1:-0.0458226 2:0.187006 3:0.606457 4:-3.45934 5:0.226025 6:-4.22651 7:0.461044 8:8.31774 
1 1:-0.42077 2:-0.0668191 3:0.696734 4:-3.11614 5:0.07158 6:-4.26105 7:0.568969 8:7.96342 
0.050378200241603416 1:-0.455053 2:1.38986 3:-1.4079 4:-1.56258 5:-0.594729 6:4.79204 7:-1.87981 8:-12.5234 
1 1:-0.55869 2:1.49051 3:-1.36593 4:-1.59508 5:-0.697639 6:4.75444 7:-1.8374 8:-12.5826 
0.55928921450160918 1:0.323197 2:1.14612 3:0.408672 4:-6.55597 5:0.128203 6:-4.21367 7:1.75876 8:0.882894 
1 1:-0.516569 2:1.60862 3:-1.85456 4:-1.19229 5:-0.493864 6:-6.33397 7:-0.0768519 8:-6.79999 
1 1:-0.453814 2:0.894815 3:-2.77337 4:-0.233424 5:0.0274485 6:1.36197 7:1.44726 8:-7.09067 
1 1:-0.586413 2:1.15289 3:-0.953072 4:-6.60218 5:1.08896 6:-0.746958 7:2.54989 8:8.83204 
1 1:-0.253963 2:0.540777 3:0.556089 4:5.63652 5:-1.05576 6:5.27346 7:1.43717 8:-13.5073 
1 1:-0.466467 2:1.42505 3:-1.78849 4:1.42275 5:-0.379107 6:2.66976 7:0.183119 8:-7.52075 
1 1:-0.352596 2:1.24444 3:-1.72942 4:1.1959 5:-0.597069 6:2.81216 7:0.428697 8:-7.52997 
1 1:-0.0581872 2:1.13818 3:-1.3576 4:1.15897 5:-0.842143 6:3.09207 7:0.687748 8:-7.51553 
1 1:-0.750282 2:0.260374 3:0.07431 4:1.03796 5:0.451572 6:-6.45337 7:2.75551 8:10.0169 
1 1:-0.62882 2:0.33059 3:0.198315 4:2.03958 5:1.0464 6:4.85605 7:-2.90312 8:10.6436 
1 1:-0.670156 2:0.659482 3:-0.196817 4:1.95442 5:1.30739 6:4.83512 7:-2.70058 8:9.63764 
1 1:-0.720204 2:0.380597 3:-0.221471 4:1.88566 5:1.35565 6:4.76926 7:-2.83447 8:10.019 
1 1:0.295209 2:1.29281 3:-1.85739 4:-6.15125 5:-0.136655 6:1.23743 7:1.73116 8:14.0172 
1 1:0.442785 2:1.22241 3:-2.46145 4:0.0308245 5:-0.386228 6:1.56596 7:1.42638 8:-12.3447 
1 1:-0.147043 2:1.91573 3:-1.17169 4:3.25956 5:0.456116 6:6.76038 7:0.545994 8:-8.56561 
1 1:-0.0141172 2:2.03179 3:-1.22938 4:4.09512 5:-0.00343581 6:6.51001 7:0.321983 8:-9.19263 
1 1:-0.0141172 2:2.03179 3:-1.22938 4:4.09512 5:-0.00343581 6:6.51001 7:0.321983 8:-9.19263 
1 1:-0.018013 2:2.06815 3:-1.21911 4:4.06573 5:0.0426654 6:6.53523 7:0.355497 8:-9.1739 
1 1:-0.0219088 2:2.10451 3:-1.20884 4:4.03633 5:0.0887666 6:6.56046 7:0.38901 8:-9.15516 
1 1:-0.0961633 2:2.1192 3:-1.15946 4:3.55975 5:0.410745 6:6.73608 7:0.568042 8:-8.80418 
1 1:-0.438098 2:1.47288 3:-0.178452 4:0.679962 5:-0.369765 6:2.986 7:1.63343 8:-13.7006 
1 1:-0.397331 2:1.49168 3:-0.165017 4:0.800884 5:-0.384738 6:2.99486 7:1.78023 8:-13.6773 
1 1:-0.408688 2:1.54206 3:-0.187357 4:0.8322 5:-0.491759 6:3.064 7:1.73484 8:-13.6795 
1 1:-0.397179 2:0.803617 3:0.384053 4:-6.74787 5:0.7563 6:-0.956865 7:0.860713 8:-11.7814 
1 1:-0.559416 2:0.72505 3:0.489414 4:-6.75437 5:0.8068 6:-1.01613 7:0.818258 8:-11.7516 
1 1:-0.235634 2:1.43794 3:-2.83601 4:2.55428 5:1.14299 6:-5.19446 7:0.104321 8:-11.6541 
1 1:-0.223035 2:1.44153 3:-2.83977 4:2.55072 5:1.1422 6:-5.2018 7:0.116305 8:-11.6532 
1 1:-0.193483 2:1.38251 3:-2.82602 4:2.51931 5:1.10703 6:-5.23932 7:0.0921892 8:-11.641 
1 1:0.314518 2:1.57698 3:0.860862 4:6.09057 5:0.194853 6:-3.23468 7:0.568207 8:12.635 
1 1:0.201524 2:1.62219 3:1.09737 4:6.04213 5:0.327159 6:-3.18273 7:0.302783 8:12.9349 
1 1:0.257377 2:0.164265 3:0.44845 4:-2.4307 5:-0.344629 6:1.84973 7:1.64486 8:-14.6029 
1 1:0.291814 2:-0.0484029 3:0.464542 4:-2.95146 5:-0.256534 6:2.02372 7:1.40821 8:-14.9419 
1 1:-0.705878 2:1.77772 3:-2.68439 4:1.57952 5:0.594475 6:-1.3719 7:2.67775 8:-15.2084 
1 1:-0.700027 2:1.77421 3:-2.68656 4:1.60681 5:0.578196 6:-1.37954 7:2.67952 8:-15.2026 
0.061790918826169383 1:-0.0599978 2:0.78161 3:-1.45859 4:-1.04995 5:0.91341 6:-2.43887 7:2.36749 8:7.44426 
0.57991404097640364 1:0.095978 2:0.0557068 3:0.752357 4:6.83814 5:0.314104 6:5.8574 7:2.0605 8:8.88252 
1 1:0.363407 2:0.792677 3:-2.44096 4:1.26244 5:1.21578 6:5.44311 7:2.16825 8:2.17315 
1 1:0.367108 2:0.689616 3:-2.2812 4:1.19442 5:1.44694 6:5.82142 7:1.86026 8:2.06694 
1 1:0.354379 2:0.72583 3:-2.29166 4:1.21308 5:1.44796 6:5.80199 7:1.86401 8:2.07863 
1 1:-0.332855 2:1.48872 3:-1.82723 4:-2.58194 5:-0.306891 6:-0.683267 7:0.942337 8:-10.9622 
0.4423900813580387 1:-0.394063 2:1.48253 3:-1.89241 4:-2.73215 5:-0.445032 6:-0.997893 7:0.796271 8:-10.8165 
1 1:-0.531963 2:1.40932 3:-1.83977 4:-2.71769 5:-0.474577 6:-0.966931 7:0.701573 8:-10.8604 
1 1:-0.635928 2:2.19388 3:-3.12938 4:-6.52679 5:-1.04151 6:6.46492 7:-0.371369 8:-3.70017 
1 1:-0.217063 2:-0.534302 3:0.662831 4:5.77302 5:-0.097985 6:4.5292 7:2.64759 8:-1.92585 
0.39541117974880252 1:-0.545798 2:1.91995 3:-2.61204 4:5.61582 5:-0.553827 6:3.01227 7:-1.64311 8:-8.03393 
1 1:-0.688167 2:1.97114 3:-2.73491 4:5.60358 5:-0.545373 6:2.95495 7:-1.59963 8:-8.0143 
1 1:0.392244 2:0.859311 3:-0.0828938 4:-6.63195 5:-0.0886841 6:3.63908 7:1.72954 8:8.49653 
1 1:0.051531 2:1.17123 3:-2.13335 4:3.64451 5:0.818242 6:-2.98418 7:0.800777 8:-15.9033 
0.28916560300541294 1:0.0184277 2:1.20517 3:-2.11778 4:3.64483 5:0.824806 6:-2.89394 7:0.836356 8:-15.8935 
1 1:-0.640095 2:1.77781 3:-2.09406 4:-3.91643 5:-0.00492969 6:-1.40268 7:0.029877 8:-15.5424 
1 1:-0.615595 2:1.8025 3:-2.03336 4:-3.86251 5:-0.0250329 6:-1.32002 7:-0.0709916 8:-15.4064 
1 1:-0.591095 2:1.8272 3:-1.97266 4:-3.80858 5:-0.0451362 6:-1.23735 7:-0.17186 8:-15.2703 
1 1:-0.578845 2:1.83954 3:-1.94231 4:-3.78162 5:-0.0551878 6:-1.19602 7:-0.222294 8:-15.2023 
0.097602228849710454 1:-0.430574 2:1.23513 3:-0.879218 4:3.98376 5:1.11481 6:3.99024 7:2.02545 8:-17.0156 
1 1:-0.160279 2:0.827659 3:-0.684393 4:3.82505 5:0.701842 6:4.06606 7:2.06479 8:-16.5415 
1 1:-0.169996 2:0.785523 3:-0.739794 4:3.75705 5:0.939586 6:3.95185 7:2.20256 8:-16.7138 
1 1:-0.0348484 2:0.581788 3:-0.642381 4:3.6777 5:0.733104 6:3.98975 7:2.22223 8:-16.4767 
1 1:-0.0397072 2:0.56072 3:-0.670082 4:3.6437 5:0.851977 6:3.93265 7:2.29112 8:-16.5629 
1 1:-0.491759 2:1.40591 3:-1.54344 4:-5.93048 5:-0.187754 6:-0.0104404 7:-0.417942 8:6.29651 
1 1:0.00476743 2:1.59956 3:-0.739851 4:-1.14664 5:0.242785 6:2.18513 7:2.13454 8:-14.6621 
1 1:0.136633 2:1.54989 3:-0.681676 4:-1.58943 5:0.0919968 6:1.9868 7:2.10808 8:-14.6515 
1 1:0.108909 2:1.53207 3:-0.700911 4:-1.57641 5:0.0519845 6:2.00255 7:2.12956 8:-14.7559 
0.26215451565186393 1:0.00248094 2:1.58881 3:0.303217 4:1.22234 5:-0.143867 6:-1.8898 7:-0.156758 8:-8.70008 
1 1:-0.199788 2:0.541313 3:0.367343 4:1.95696 5:-0.788407 6:-1.70472 7:-0.823992 8:-9.04465 
1 1:-0.21226 2:0.707847 3:0.188767 4:1.79943 5:-0.65904 6:-1.68835 7:-0.763242 8:-9.02473 
1 1:-0.215378 2:0.74948 3:0.144124 4:1.76005 5:-0.626699 6:-1.68426 7:-0.748055 8:-9.01974 
1 1:-0.218496 2:0.791114 3:0.0994795 4:1.72067 5:-0.594357 6:-1.68017 7:-0.732868 8:-9.01476 
1 1:-0.224732 2:0.874381 3:0.0101915 4:1.64191 5:-0.529673 6:-1.67198 7:-0.702493 8:-9.0048 
0.21625076559405085 1:-0.226291 2:0.895198 3:-0.0121304 4:1.62221 5:-0.513503 6:-1.66993 7:-0.694899 8:-9.00231 
1 1:0.0073584 2:0.126028 3:0.433847 4:1.14295 5:-0.524633 6:5.39623 7:-2.69218 8:-8.44224 
0.17238879744481705 1:-0.0855369 2:0.858749 3:-2.17925 4:2.46027 5:1.38872 6:4.8102 7:1.81084 8:2.9336 
1 1:0.154092 2:1.73367 3:-2.60449 4:2.98712 5:0.443944 6:2.11221 7:0.904313 8:-3.4984 
1 1:-0.628137 2:1.68353 3:-1.76373 4:-4.13805 5:0.488689 6:3.20494 7:1.19635 8:-18.4353 
1 1:-0.642101 2:1.57111 3:-1.85715 4:-4.19033 5:0.511547 6:3.57602 7:1.05676 8:-18.391 
1 1:0.238534 2:1.14287 3:-1.96529 4:-4.24073 5:0.938264 6:-1.57142 7:2.46564 8:-15.8949 
1 1:0.156851 2:1.50743 3:-2.20278 4:-4.14943 5:0.968369 6:-1.43139 7:2.39892 8:-16.1361 
1 1:0.277565 2:0.399124 3:0.475795 4:4.70169 5:0.711776 6:-5.59308 7:-0.217151 8:12.4014 
1 1:0.227374 2:0.33256 3:0.453526 4:4.64122 5:0.87739 6:-5.2635 7:-0.897156 8:12.4063 
1 1:0.232769 2:0.334845 3:0.439183 4:4.65592 5:0.868243 6:-5.27839 7:-0.859938 8:12.3894 
1 1:0.245517 2:0.289942 3:0.428372 4:4.60301 5:0.836102 6:-5.60834 7:-0.593404 8:12.382 
1 1:-0.285804 2:0.958348 3:-2.46915 4:-0.71301 5:-0.147318 6:1.42704 7:2.36271 8:-12.2512 
1 1:-0.528057 2:1.40374 3:-1.14413 4:-1.77753 5:-0.616497 6:-2.10108 7:-1.83461 8:-6.90191 
1 1:-0.530385 2:1.44053 3:-1.27461 4:-1.74803 5:-0.771386 6:-2.17087 7:-1.90513 8:-6.84369 
1 1:-0.564387 2:1.36452 3:-1.39043 4:-1.71255 5:-0.887448 6:-2.28396 7:-2.02581 8:-6.87358 
1 1:-0.596063 2:1.25171 3:-1.37578 4:-1.70656 5:-0.848619 6:-2.32727 7:-2.07596 8:-6.96167 
1 1:-0.559307 2:1.29033 3:-2.76264 4:-2.56775 5:-0.487642 6:2.93323 7:0.726724 8:5.48962 
1 1:-0.649943 2:1.3584 3:-2.77471 4:-2.60809 5:-0.506692 6:2.86331 7:0.815844 8:5.57773 
1 1:-0.740579 2:1.42648 3:-2.78677 4:-2.64842 5:-0.525741 6:2.7934 7:0.904964 8:5.66584 
1 1:-0.704321 2:1.5094 3:-1.90506 4:-5.94948 5:0.1667 6:4.58374 7:1.19146 8:6.79976 
0.031246624706541343 1:-0.669839 2:1.60289 3:-2.2364 4:-5.522 5:0.121734 6:4.74723 7:1.30155 8:6.50156 
1 1:-0.61192 2:1.92992 3:-2.25004 4:-5.89214 5:0.186627 6:4.30271 7:0.784492 8:6.01221 
1 1:-0.501422 2:1.78985 3:-1.92168 4:-6.10772 5:0.369896 6:4.18394 7:1.04268 8:5.40945 
1 1:-0.525495 2:1.94838 3:-2.20359 4:-5.92661 5:0.246303 6:4.38178 7:0.930742 8:5.88801 
1 1:0.167323 2:1.96682 3:-0.954641 4:3.4 5:-0.97534 6:4.05663 7:0.397106 8:-1.78425 
1 1:0.123776 2:1.94956 3:-0.922072 4:3.55619 5:-0.984328 6:4.11595 7:0.423898 8:-1.69417 
1 1:0.0522154 2:1.88847 3:-0.785887 4:3.26262 5:-0.960478 6:3.98394 7:0.384729 8:-1.76417 
1 1:-0.0348789 2:1.85395 3:-0.720749 4:3.575 5:-0.978454 6:4.10257 7:0.438315 8:-1.58401 
0.41622714420990714 1:-0.114206 2:1.80615 3:-0.620088 4:3.58441 5:-0.975516 6:4.09589 7:0.445523 8:-1.52893 
1 1:-0.690891 2:1.06565 3:-0.941365 4:-4.41688 5:-0.806579 6:-5.0836 7:1.6439 8:12.8842 
1 1:-0.663538 2:0.624427 3:0.241106 4:-5.50877 5:-0.35043 6:-5.71609 7:2.0572 8:13.1066 
1 1:-0.680734 2:0.959511 3:-0.576854 4:-4.36053 5:-0.674911 6:-5.3921 7:2.15269 8:13.0061 
1 1:-0.675655 2:0.906444 3:-0.394598 4:-4.33236 5:-0.609078 6:-5.54635 7:2.40708 8:13.067 
1 1:-0.688063 2:0.857215 3:-0.338065 4:-4.37123 5:-0.570251 6:-5.56899 7:2.44131 8:13.0822 
1 1:-0.712878 2:0.758756 3:-0.224999 4:-4.44897 5:-0.492596 6:-5.61425 7:2.50975 8:13.1124 
1 1:0.250703 2:0.0603944 3:0.823319 4:1.82223 5:-0.39254 6:5.03906 7:1.4996 8:3.43194 
1 1:-0.58989 2:1.3513 3:-1.2693 4:1.04731 5:1.20376 6:-3.12303 7:-2.6993 8:15.5149 
1 1:-0.453232 2:1.18176 3:-1.04733 4:-3.76216 5:0.959731 6:-3.20534 7:-1.16084 8:6.80894 
1 1:-0.0832193 2:1.19459 3:-0.276699 4:6.46883 5:-0.961929 6:-3.13447 7:0.496472 8:-8.22862 
1 1:0.257458 2:1.57991 3:-1.79213 4:1.84506 5:0.00064488 6:4.0306 7:1.64177 8:14.025 
0.21777632715142434 1:0.17704 2:1.53223 3:-1.79895 4:1.73301 5:0.125486 6:4.00821 7:2.00547 8:14.0105 
1 1:0.177815 2:1.5402 3:-1.81333 4:1.74841 5:0.126071 6:4.00845 7:2.01327 8:14.0169 
1 1:-0.286011 2:1.56498 3:-0.0499908 4:-1.63077 5:-0.49287 6:6.5554 7:-0.238903 8:7.0363 
1 1:-0.635344 2:1.16577 3:-1.75193 4:-2.64272 5:0.705034 6:-2.81059 7:0.965389 8:17.4263 
1 1:0.268824 2:1.85158 3:-0.357057 4:-2.92396 5:0.226072 6:-4.62131 7:0.392859 8:-11.5895 
1 1:0.254484 2:1.82245 3:-0.323312 4:-3.00657 5:0.170974 6:-4.62937 7:0.421854 8:-11.6237 
1 1:-0.0977882 2:1.0674 3:-0.904432 4:5.78803 5:-0.62375 6:-2.59505 7:-0.963083 8:-17.4852 
1 1:0.0181563 2:1.19184 3:-0.665352 4:5.78289 5:-0.49877 6:-2.73895 7:-0.775154 8:-17.7326 
1 1:-0.393744 2:0.177126 3:0.890633 4:2.1994 5:0.244253 6:5.0827 7:1.14462 8:2.47613 
1 1:-0.395356 2:0.190443 3:0.890341 4:2.36021 5:0.272558 6:5.09844 7:1.04714 8:2.32186 
1 1:-0.398579 2:0.217076 3:0.889756 4:2.68184 5:0.329167 6:5.12992 7:0.852182 8:2.01333 
1 1:0.297327 2:1.39217 3:0.592241 4:-2.29514 5:0.222641 6:-2.33426 7:0.327766 8:-9.20967 
1 1:0.0753628 2:1.53061 3:0.83843 4:-2.52851 5:0.405961 6:-2.36997 7:0.0590064 8:-9.28189 
1 1:0.0719182 2:1.56566 3:0.961018 4:-2.52694 5:0.58529 6:-2.20968 7:-0.135592 8:-9.12146 
1 1:-0.0356196 2:1.59983 3:0.961524 4:-2.6452 5:0.49762 6:-2.38782 7:-0.0753733 8:-9.31799 
1 1:-0.470311 2:1.05579 3:0.360293 4:-2.88908 5:-0.731582 6:1.02548 7:0.60767 8:13.327 
0.45112026407604122 1:-0.373653 2:0.975791 3:0.56478 4:-3.20178 5:-0.783798 6:0.823552 7:0.885723 8:13.5161 
1 1:-0.122739 2:1.82774 3:-2.45477 4:-5.84449 5:-0.720008 6:0.031216 7:-0.728645 8:17.4377 
1 1:0.0198168 2:1.90214 3:-2.44016 4:-5.97933 5:-0.822684 6:-0.0453024 7:-0.73498 8:17.3846 
1 1:0.149966 2:1.83429 3:-2.47968 4:-5.94519 5:-0.879027 6:-0.0788732 7:-0.8059 8:17.3658 
1 1:-0.529834 2:1.07751 3:-1.39882 4:-5.94054 5:0.672307 6:0.52161 7:2.75759 8:9.75984 
1 1:-0.534083 2:1.00798 3:-1.40817 4:-5.8688 5:0.621825 6:0.622104 7:2.7297 8:9.8256 
1 1:0.0735928 2:1.7197 3:-2.58265 4:6.2874 5:-0.701012 6:2.72429 7:2.83436 8:6.78326 
1 1:0.413366 2:1.32017 3:-0.0144994 4:5.39563 5:0.58787 6:-6.18598 7:1.12036 8:16.8239 
1 1:0.40547 2:1.31866 3:-0.0113726 4:5.40941 5:0.609929 6:-6.16079 7:1.11277 8:16.7842 
1 1:0.410439 2:1.33576 3:0.0263053 4:5.42405 5:0.559629 6:-6.18439 7:1.09649 8:16.7947 
1 1:0.266687 2:1.61423 3:0.238119 4:5.28693 5:0.809043 6:-6.24439 7:1.13287 8:16.81 
1 1:0.262739 2:1.61347 3:0.239683 4:5.29381 5:0.820073 6:-6.2318 7:1.12907 8:16.7901 
1 1:0.265223 2:1.62202 3:0.258522 4:5.30113 5:0.794922 6:-6.2436 7:1.12093 8:16.7954 
1 1:0.221881 2:1.03355 3:-1.35396 4:6.44729 5:-0.158906 6:-1.1971 7:2.34621 8:-6.27902 
1 1:0.204059 2:1.44585 3:-1.6231 4:-2.85442 5:-0.274061 6:4.58403 7:2.31232 8:1.06827 
1 1:0.157517 2:1.39215 3:-1.72489 4:-2.75936 5:-0.284644 6:4.63296 7:2.24562 8:1.13958 
1 1:0.180788 2:1.419 3:-1.674 4:-2.80689 5:-0.279352 6:4.60849 7:2.27897 8:1.10393 
1 1:0.182559 2:1.41921 3:-1.731 4:-2.75174 5:-0.269048 6:4.56515 7:2.19112 8:1.1336 
0.27705611917101647 1:-0.113848 2:-0.00479944 3:1.02024 4:3.61551 5:-0.732206 6:-1.35823 7:1.35554 8:6.46534 
1 1:-0.18132 2:-0.229834 3:1.14336 4:3.45378 5:-0.718839 6:-1.15118 7:1.5095 8:6.5011 
1 1:-0.158829 2:-0.154823 3:1.10232 4:3.50769 5:-0.723294 6:-1.2202 7:1.45818 8:6.48918 
1 1:-0.337203 2:-0.129153 3:1.10762 4:3.78778 5:-1.00473 6:-1.19764 7:1.39692 8:5.99738 
1 1:-0.436124 2:-0.309354 3:1.06049 4:3.8293 5:-1.00458 6:-1.1747 7:1.49708 8:6.02456 
1 1:0.0914146 2:0.0891372 3:0.868127 4:-5.13239 5:-0.303806 6:2.85675 7:-0.437088 8:5.08833 
1 1:0.259163 2:1.30648 3:-2.14301 4:1.4778 5:0.859265 6:-1.45537 7:1.68718 8:11.2733 
1 1:0.38812 2:1.13687 3:-2.32586 4:1.45388 5:0.884319 6:-1.46623 7:2.0402 8:11.3646 
1 1:0.357513 2:1.195 3:-0.767009 4:-4.64279 5:-0.497137 6:5.76804 7:2.11863 8:8.29947 
1 1:-0.212469 2:1.12492 3:-1.07171 4:-2.10919 5:-1.16863 6:5.68331 7:-2.45684 8:1.12147 
1 1:-0.242899 2:0.902946 3:-1.03214 4:-2.39252 5:-1.3372 6:5.99041 7:-2.1711 8:1.78372 
1 1:-0.333314 2:1.06362 3:-0.941189 4:-2.46927 5:-1.32487 6:5.90373 7:-2.25394 8:1.79165 
1 1:0.0641305 2:1.74454 3:0.437544 4:6.36232 5:-1.15884 6:-3.21018 7:0.436561 8:-11.8588 
1 1:0.182717 2:1.88621 3:0.265264 4:6.49922 5:-1.25413 6:-3.04262 7:0.319353 8:-11.9254 
0.035980799266128259 1:0.0395756 2:1.73722 3:0.617411 4:6.39184 5:-1.24095 6:-3.24078 7:0.456442 8:-11.8276 
1 1:0.0692223 2:1.77264 3:0.574341 4:6.42607 5:-1.26477 6:-3.19889 7:0.42714 8:-11.8442 
1 1:0.0630836 2:1.77081 3:0.619307 4:6.43345 5:-1.28529 6:-3.20654 7:0.432111 8:-11.8364 
0.54022280107696596 1:-0.0898727 2:1.19456 3:-2.5898 4:2.88079 5:-0.0113789 6:1.76334 7:2.16115 8:-5.0741 
0.98647717778610011 1:-0.57023 2:1.31416 3:-0.83534 4:-6.53491 5:-0.594292 6:4.60012 7:1.19085 8:-1.29507 
0.83629615215867514 1:-0.479705 2:1.29073 3:-0.972839 4:-6.56124 5:-0.621315 6:4.67834 7:1.06813 8:-1.39841 
1 1:-0.253728 2:0.909145 3:-0.808163 4:-6.71653 5:-0.744844 6:5.01261 7:1.48235 8:-1.20191 
1 1:-0.253728 2:0.909145 3:-0.808163 4:-6.71653 5:-0.744844 6:5.01261 7:1.48235 8:-1.20191 
1 1:-0.208466 2:0.897432 3:-0.876913 4:-6.72969 5:-0.758355 6:5.05172 7:1.42099 8:-1.25358 
1 1:-0.214165 2:0.858518 3:-0.804766 4:-6.73923 5:-0.763663 6:5.06417 7:1.51879 8:-1.19027 
1 1:-0.174603 2:0.807891 3:-0.801368 4:-6.76193 5:-0.782482 6:5.11573 7:1.55522 8:-1.17863 
1 1:-0.25142 2:0.909553 3:-0.743903 4:4.81209 5:0.708817 6:6.37228 7:-2.13509 8:8.66095 
1 1:0.178507 2:0.789254 3:-0.707013 4:-4.75831 5:-0.576697 6:5.81204 7:2.58664 8:-4.38339 
1 1:0.127317 2:0.767573 3:-0.736739 4:-4.71668 5:-0.717716 6:5.81871 7:2.63993 8:-4.39185 
1 1:0.024939 2:0.724212 3:-0.79619 4:-4.63341 5:-0.999753 6:5.83205 7:2.74652 8:-4.40877 
1 1:-0.000655572 2:0.713372 3:-0.811053 4:-4.6126 5:-1.07026 6:5.83539 7:2.77317 8:-4.413 
1 1:-0.0262502 2:0.702531 3:-0.825916 4:-4.59178 5:-1.14077 6:5.83873 7:2.79982 8:-4.41724 
1 1:-0.0774393 2:0.680851 3:-0.855642 4:-4.55015 5:-1.28179 6:5.8454 7:2.85312 8:-4.4257 
1 1:-0.0902366 2:0.67543 3:-0.863073 4:-4.53974 5:-1.31705 6:5.84707 7:2.86644 8:-4.42781 
0.4871425074796169 1:-0.103034 2:0.67001 3:-0.870505 4:-4.52933 5:-1.3523 6:5.84874 7:2.87976 8:-4.42993 
1 1:0.0481374 2:0.993318 3:-0.886235 4:-5.48946 5:0.03778 6:-6.17716 7:-1.65183 8:1.45655 
1 1:0.00390637 2:0.921153 3:-0.310059 4:-5.95072 5:0.569946 6:-6.03745 7:-2.13343 8:1.32454 
1 1:0.0661315 2:0.801914 3:-0.319997 4:-6.05784 5:0.677036 6:-6.01692 7:-2.05022 8:1.29419 
1 1:-0.592285 2:1.58992 3:-1.6389 4:3.5262 5:0.246628 6:0.93085 7:-2.94942 8:-14.6791 
1 1:-0.52998 2:0.743497 3:-0.544041 4:3.97661 5:1.14142 6:-5.07263 7:2.25229 8:11.0675 
1 1:-0.55611 2:0.726786 3:-0.638938 4:4.2507 5:1.07994 6:-5.17121 7:2.02255 8:11.0204 
1 1:-0.546151 2:0.851602 3:-0.448687 4:4.09969 5:1.15606 6:-5.04115 7:2.18419 8:11.1237 
1 1:-0.567302 2:0.897299 3:-0.448459 4:4.29828 5:1.13263 6:-5.07471 7:2.03527 8:11.1282 
1 1:-0.0905574 2:1.35134 3:0.293313 4:-4.97604 5:-1.08757 6:-5.73781 7:1.72213 8:-5.95768 
1 1:-0.121255 2:1.44941 3:0.373032 4:-4.8041 5:-1.36423 6:-5.70811 7:1.81089 8:-5.86097 
1 1:-0.016838 2:1.27973 3:0.322872 4:-4.71429 5:-1.42059 6:-5.70686 7:1.62829 8:-5.68469 
1 1:-0.560863 2:1.45993 3:-0.94893 4:4.09711 5:1.20242 6:4.00944 7:1.93689 8:-17.1665 
1 1:0.189191 2:1.65615 3:-2.60506 4:-1.69763 5:-0.0160322 6:2.56162 7:2.5701 8:-11.6593 
1 1:-0.506583 2:-0.318385 3:0.866496 4:-6.67973 5:-0.399269 6:-5.969 7:1.77031 8:14.3398 
1 1:-0.46402 2:-0.200103 3:0.672962 4:-6.66678 5:-0.496956 6:-5.54227 7:2.0958 8:14.0686 
1 1:-0.437555 2:0.963841 3:-1.00032 4:5.63425 5:0.126621 6:-5.83114 7:1.28148 8:-12.9235 
1 1:-0.511166 2:0.910086 3:-0.544446 4:5.58223 5:0.066425 6:-5.70382 7:1.19102 8:-12.6208 
1 1:-0.462092 2:0.945922 3:-0.84836 4:5.61691 5:0.106556 6:-5.7887 7:1.25133 8:-12.8226 
1 1:-0.555574 2:0.895099 3:-0.490996 4:5.69054 5:0.0189973 6:-6.28618 7:1.09704 8:-12.7378 
1 1:0.0848148 2:1.39891 3:-1.23164 4:-5.86648 5:0.830554 6:-6.2717 7:-0.764095 8:-4.70076 
1 1:0.0779196 2:1.5021 3:-0.907336 4:-5.83036 5:0.5962 6:-6.12045 7:-0.731674 8:-4.35883 
1 1:0.177136 2:1.46193 3:-2.53194 4:-3.6715 5:-0.872025 6:4.30135 7:2.2356 8:2.164 
1 1:0.189124 2:1.48459 3:-2.64249 4:-3.79333 5:-0.945638 6:4.25715 7:2.23296 8:2.30199 
0.84403858183168323 1:-0.0811274 2:1.14572 3:-0.774002 4:2.1052 5:-0.509398 6:0.436402 7:-1.65189 8:1.54384 
0.69283747897785819 1:-0.0238209 2:1.03872 3:-0.606884 4:2.14684 5:-0.324989 6:0.486618 7:-1.40011 8:1.61158 
1 1:-0.180795 2:0.92357 3:-0.0665633 4:2.58362 5:-1.13147 6:0.600089 7:-0.784346 8:0.910993 
1 1:-0.640742 2:1.83609 3:-2.11071 4:5.4892 5:-1.45676 6:-3.93783 7:-0.62104 8:-16.0584 
1 1:0.0861293 2:1.70012 3:-2.51782 4:6.27412 5:-0.669721 6:2.81778 7:2.80416 8:6.81036 
1 1:0.0735928 2:1.7197 3:-2.58265 4:6.2874 5:-0.701012 6:2.72429 7:2.83436 8:6.78326 
1 1:-0.0277913 2:1.82898 3:-2.61897 4:6.22024 5:-0.707724 6:2.7344 7:2.84717 8:6.86467 
1 1:-0.52539 2:1.35968 3:-1.48755 4:2.65887 5:-1.04428 6:-3.65896 7:-2.78203 8:-5.98151 
1 1:-0.544006 2:1.46529 3:-1.50469 4:2.52644 5:-1.06815 6:-3.70915 7:-2.78914 8:-6.03664 
1 1:-0.157236 2:1.17315 3:-0.601675 4:6.6231 5:1.11658 6:1.2211 7:-0.292417 8:12.0194 
1 1:-0.227609 2:1.2253 3:-0.736327 4:6.68724 5:1.2584 6:1.18762 7:-0.104803 8:12.0444 
1 1:-0.222582 2:1.22158 3:-0.726709 4:6.68266 5:1.24827 6:1.19001 7:-0.118204 8:12.0426 
1 1:-0.217555 2:1.21785 3:-0.717091 4:6.67807 5:1.23814 6:1.1924 7:-0.131605 8:12.0408 
1 1:-0.213304 2:1.15433 3:-1.67524 4:-6.00905 5:-0.745598 6:4.90811 7:0.922162 8:-14.0542 
1 1:-0.255147 2:1.15866 3:-2.0701 4:-6.26165 5:-1.09735 6:4.59253 7:0.756938 8:-14.1038 
1 1:-0.246285 2:1.17166 3:-2.08797 4:-6.27406 5:-1.07482 6:4.58983 7:0.734873 8:-14.1264 
1 1:-0.442726 2:0.650819 3:-0.199503 4:-0.378431 5:0.94997 6:-6.02181 7:0.805531 8:-15.5146 
1 1:-0.371291 2:0.574541 3:-0.242345 4:-0.384369 5:0.932728 6:-6.06054 7:0.776272 8:-15.5137 
1 1:-0.684515 2:1.1402 3:-0.0890172 4:-3.91375 5:0.57636 6:-2.37455 7:0.688617 8:-2.98761 
1 1:-0.632532 2:-0.335983 3:0.58843 4:-6.66557 5:-0.320766 6:-5.55175 7:1.62272 8:14.0058 
1 1:-0.70749 2:0.0209482 3:0.502459 4:-6.68238 5:-0.199939 6:-5.43304 7:1.46403 8:13.3785 
1 1:-0.61125 2:-0.276842 3:0.491662 4:-6.65909 5:-0.36961 6:-5.33839 7:1.78546 8:13.8702 
1 1:0.195884 2:0.079442 3:0.827762 4:-5.02055 5:-0.642822 6:-5.76677 7:1.45961 8:-12.2949 
0.91353838578570112 1:0.280373 2:0.934692 3:-1.88106 4:-3.73624 5:0.887236 6:-5.18612 7:1.57488 8:8.4048 
1 1:0.307745 2:0.932913 3:-1.52073 4:-3.69221 5:0.837976 6:-5.01468 7:1.43316 8:8.57063 
0.79406027558117842 1:0.288996 2:0.960693 3:-1.3587 4:-3.58597 5:0.820442 6:-4.92897 7:1.42223 8:8.70023 
1 1:-0.0839493 2:0.780195 3:-1.81405 4:-1.94886 5:0.905589 6:-3.67605 7:2.56204 8:7.95938 
1 1:-0.0814438 2:0.799565 3:-1.86068 4:-2.00894 5:0.912436 6:-3.7687 7:2.55082 8:7.98374 
0.16953312284646846 1:-0.0664112 2:0.91579 3:-2.14049 4:-2.36947 5:0.953514 6:-4.3246 7:2.48352 8:8.12989 
1 1:0.355366 2:0.823569 3:-2.52918 4:-4.16117 5:0.957373 6:-5.52899 7:1.61861 8:7.88642 
0.45249557368659576 1:0.231301 2:0.781227 3:-2.63925 4:-3.0843 5:0.868736 6:-5.81872 7:2.2753 8:8.02767 
1 1:0.00532882 2:1.95914 3:-0.521898 4:-1.97826 5:1.14695 6:2.30002 7:0.724015 8:-12.0187 
1 1:0.0905948 2:1.46745 3:-1.62014 4:-1.43546 5:0.547643 6:1.46801 7:2.17487 8:-11.9914 
1 1:0.0832828 2:1.83536 3:-0.643795 4:2.05074 5:-0.876824 6:3.48267 7:0.19922 8:-2.2645 
1 1:0.154843 2:1.89644 3:-0.77998 4:2.34431 5:-0.900675 6:3.61467 7:0.238389 8:-2.1945 
1 1:0.111296 2:1.87918 3:-0.747411 4:2.5005 5:-0.909663 6:3.67399 7:0.265182 8:-2.10442 
1 1:0.137726 2:1.89816 3:-1.35947 4:1.683 5:-0.39404 6:3.02034 7:0.36032 8:-3.05046 
1 1:0.0963578 2:1.89 3:-1.46352 4:1.79687 5:-0.308268 6:2.99906 7:0.424691 8:-3.09956 
1 1:0.0756738 2:1.88592 3:-1.51554 4:1.85381 5:-0.265383 6:2.98841 7:0.456876 8:-3.1241 
1 1:-0.218269 2:1.82482 3:-0.208835 4:1.2232 5:-1.08985 6:2.85662 7:0.115555 8:-2.8722 
1 1:-0.591796 2:1.69333 3:-0.0106306 4:1.14387 5:-1.20112 6:2.61499 7:0.121599 8:-2.76616 
1 1:-0.608253 2:1.45998 3:-0.900305 4:0.519847 5:-0.937119 6:2.34994 7:-0.0622582 8:-2.14675 
1 1:-0.585014 2:1.47166 3:-0.898815 4:0.534329 5:-0.934333 6:2.36889 7:-0.0598016 8:-2.1628 
1 1:0.16261 2:1.88316 3:-0.744457 4:2.04134 5:-0.879762 6:3.48936 7:0.192012 8:-2.31958 
1 1:-0.218269 2:1.82482 3:-0.208835 4:1.2232 5:-1.08985 6:2.85662 7:0.115555 8:-2.8722 
1 1:0.156954 2:1.90089 3:-0.629085 4:1.15014 5:-0.911881 6:3.03672 7:0.0641609 8:-2.82739 
1 1:0.0639963 2:1.85417 3:-0.635045 4:1.09222 5:-0.923024 6:2.96093 7:0.0543344 8:-2.76317 
1 1:0.0648441 2:1.82646 3:-0.746068 4:1.01602 5:-0.889676 6:2.93017 7:0.0316593 8:-2.68775 
1 1:0.0648441 2:1.82646 3:-0.746068 4:1.01602 5:-0.889676 6:2.93017 7:0.0316593 8:-2.68775 
0.42624687544354439 1:-0.0546258 2:0.895536 3:-0.304245 4:-4.12061 5:0.809857 6:-4.13412 7:-0.860761 8:9.01288 
1 1:-0.0279836 2:1.32889 3:-0.633903 4:-4.07243 5:0.615501 6:-3.9582 7:-0.829531 8:8.94636 
1 1:-0.208635 2:1.12245 3:-0.352435 4:-4.01334 5:0.879279 6:-4.21257 7:-0.914234 8:8.73541 
1 1:-0.453232 2:1.18176 3:-1.04733 4:-3.76216 5:0.959731 6:-3.20534 7:-1.16084 8:6.80894 
1 1:-0.578691 2:1.16008 3:-1.11101 4:-3.85788 5:0.956244 6:-3.34465 7:-1.31483 8:6.93534 
1 1:-0.333314 2:1.06362 3:-0.941189 4:-2.46927 5:-1.32487 6:5.90373 7:-2.25394 8:1.79165 
1 1:-0.182477 2:0.933596 3:-1.0974 4:-2.21248 5:-1.25908 6:5.8802 7:-2.27255 8:1.44863 
1 1:-0.242899 2:0.902946 3:-1.03214 4:-2.39252 5:-1.3372 6:5.99041 7:-2.1711 8:1.78372 
1 1:-0.242899 2:0.902946 3:-1.03214 4:-2.39252 5:-1.3372 6:5.99041 7:-2.1711 8:1.78372 
1 1:-0.242899 2:0.902946 3:-1.03214 4:-2.39252 5:-1.3372 6:5.99041 7:-2.1711 8:1.78372 
0.97132234309519683 1:-0.530751 2:1.4065 3:0.805682 4:-4.12673 5:-0.562351 6:-4.28117 7:1.12586 8:17.0992 
1 1:-0.324067 2:1.88956 3:0.639468 4:-2.79408 5:0.427767 6:-5.39894 7:0.542348 8:16.9288 
1 1:-0.324067 2:1.88956 3:0.639468 4:-2.79408 5:0.427767 6:-5.39894 7:0.542348 8:16.9288 
1 1:0.0271392 2:-0.176849 3:0.492784 4:3.6527 5:-0.204424 6:-1.86377 7:1.46817 8:7.46226 
1 1:0.156571 2:0.268927 3:0.941082 4:-0.398067 5:1.43197 6:4.16217 7:0.993069 8:8.21237 
1 1:-0.601372 2:0.624746 3:0.327358 4:-1.06889 5:1.17236 6:5.19129 7:0.0871768 8:8.23433 
1 1:-0.656158 2:0.677813 3:0.211803 4:-1.14546 5:1.11834 6:5.32418 7:0.0821269 8:8.1887 
1 1:-0.0397364 2:0.411142 3:0.880696 4:-0.600819 5:1.35669 6:4.30127 7:0.454743 8:8.36948 
1 1:0.00949534 2:0.187379 3:0.616922 4:-0.543512 5:1.22272 6:4.61128 7:-0.130416 8:8.49777 
1 1:-0.320445 2:0.387482 3:0.550342 4:-0.801371 5:1.24603 6:4.84211 7:0.0374148 8:8.3409 
1 1:-0.615068 2:0.638013 3:0.298469 4:-1.08803 5:1.15885 6:5.22452 7:0.0859143 8:8.22292 
1 1:-0.00327086 2:0.249536 3:0.69975 4:-0.514419 5:1.26814 6:4.54729 7:-0.178523 8:8.624 
1 1:-0.109881 2:0.709732 3:-1.13682 4:3.58276 5:-1.08195 6:-3.62425 7:-2.71933 8:-5.34693 
0.30437740455576406 1:-0.540842 2:1.46253 3:-2.30128 4:2.28003 5:0.405605 6:3.72931 7:1.90241 8:-3.82975 
1 1:-0.58221 2:1.45437 3:-2.40533 4:2.39391 5:0.491376 6:3.70803 7:1.96678 8:-3.87885 
0.7633951908610761 1:-0.211163 2:1.04106 3:-2.49789 4:2.6946 5:0.456012 6:3.11736 7:2.51183 8:-4.23015 
1 1:-0.423155 2:1.12141 3:-2.43718 4:2.44431 5:0.456221 6:3.57486 7:2.50942 8:-4.15884 
1 1:-0.564017 2:1.14523 3:-2.17323 4:1.94508 5:0.46861 6:4.24939 7:2.30805 8:-3.85298 
1 1:-0.553675 2:1.14727 3:-2.14722 4:1.91661 5:0.447168 6:4.25471 7:2.29196 8:-3.8407 
1 1:0.35209 2:1.5272 3:-1.84398 4:1.60104 5:1.16056 6:-1.29855 7:1.13181 8:11.1489 
1 1:0.0417601 2:1.11066 3:-0.243712 4:0.817091 5:0.60848 6:-0.437956 7:-1.09236 8:10.3182 
1 1:-0.742962 2:-0.10171 3:0.646721 4:4.17764 5:-0.247332 6:-2.94769 7:1.14839 8:-17.4423 
1 1:-0.745177 2:-0.00987536 3:0.674693 4:4.19487 5:-0.278171 6:-2.99464 7:1.15166 8:-17.4994 
1 1:-0.076347 2:0.90609 3:1.14928 4:-4.6057 5:0.178368 6:1.28846 7:0.708175 8:5.06717 
1 1:-0.282125 2:-0.0808435 3:0.8345 4:-6.07463 5:0.523322 6:2.35131 7:0.24181 8:6.57556 
1 1:-0.0540153 2:0.0257027 3:0.950837 4:-5.83399 5:0.113636 6:2.24925 7:0.174007 8:6.34575 
0.82543003121189407 1:-0.0476491 2:-0.051745 3:0.968092 4:-5.86369 5:0.0922693 6:2.29847 7:0.199883 8:6.33251 
1 1:-0.662099 2:1.30791 3:-1.316 4:1.06817 5:1.20885 6:-3.09215 7:-2.71172 8:15.559 
1 1:-0.509598 2:1.23443 3:-1.13847 4:1.06107 5:0.963185 6:-3.24118 7:-2.52946 8:15.3806 
1 1:-0.58989 2:1.3513 3:-1.2693 4:1.04731 5:1.20376 6:-3.12303 7:-2.6993 8:15.5149 
1 1:0.261713 2:0.669676 3:-0.596285 4:-4.33276 5:0.320214 6:6.71545 7:2.14621 8:-8.63044 
1 1:0.242988 2:0.881964 3:-0.635382 4:-4.26281 5:0.21807 6:6.63624 7:2.07698 8:-8.74842 
1 1:0.412509 2:1.27698 3:-2.01391 4:-4.56359 5:-0.436083 6:5.31311 7:1.03029 8:-9.06132 
1 1:0.224896 2:1.39639 3:-1.86518 4:-4.52529 5:-0.632411 6:5.64094 7:1.2667 8:-9.19899 
1 1:-0.534808 2:1.63938 3:-1.88685 4:-4.81623 5:-0.791122 6:6.69403 7:2.07321 8:-9.87815 
1 1:-0.253704 2:1.4751 3:-1.14777 4:-4.39411 5:-0.884079 6:6.78993 7:2.12447 8:-9.38873 
1 1:-0.113106 2:1.56044 3:-1.0291 4:-4.25707 5:-0.652889 6:6.6331 7:2.01633 8:-9.3326 
1 1:-0.218094 2:1.40726 3:-1.10839 4:-4.39468 5:-0.796983 6:6.79025 7:2.13053 8:-9.33031 
1 1:-0.150331 2:1.63522 3:-1.56772 4:-4.44869 5:-1.02507 6:6.29661 7:1.73952 8:-9.47432 
1 1:-0.406744 2:1.60286 3:-1.42007 4:-4.70456 5:-1.17134 6:6.72926 7:1.76373 8:-9.89633 
1 1:-0.301509 2:1.2469 3:-1.1203 4:1.47516 5:1.48757 6:3.14366 7:0.340003 8:-9.8731 
1 1:-0.23688 2:1.20399 3:-1.21009 4:1.32046 5:1.38333 6:3.13852 7:0.392705 8:-9.93913 
1 1:-0.55433 2:1.27157 3:-1.0603 4:-0.932827 5:1.34472 6:3.04184 7:0.0707886 8:-11.0684 
1 1:-0.597399 2:1.30223 3:-1.0211 4:-1.0223 5:1.29494 6:3.0381 7:0.0640939 8:-11.1996 
1 1:-0.282474 2:1.79313 3:-1.69768 4:-6.35793 5:-0.319914 6:3.62806 7:-0.550285 8:-1.8591 
1 1:-0.225364 2:1.84707 3:-2.2564 4:-3.70053 5:-0.59155 6:-6.69943 7:-1.55796 8:-11.4527 
1 1:-0.29738 2:1.87057 3:-2.26704 4:-3.76351 5:-0.53804 6:-6.70697 7:-1.57722 8:-11.7272 
1 1:-0.566706 2:1.80855 3:-2.57412 4:-3.39704 5:0.18607 6:-5.60619 7:-1.07184 8:-13.6763 
1 1:-0.566706 2:1.80855 3:-2.57412 4:-3.39704 5:0.18607 6:-5.60619 7:-1.07184 8:-13.6763 
1 1:-0.566706 2:1.80855 3:-2.57412 4:-3.39704 5:0.18607 6:-5.60619 7:-1.07184 8:-13.6763 
1 1:0.196581 2:1.89247 3:-2.42826 4:-0.205161 5:1.3408 6:-1.84328 7:0.804013 8:6.38585 
0.8623327219671717 1:0.183077 2:1.834 3:-2.37723 4:-0.249623 5:1.31831 6:-1.87463 7:0.886301 8:6.44156 
0.96754927412151326 1:0.183077 2:1.834 3:-2.37723 4:-0.249623 5:1.31831 6:-1.87463 7:0.886301 8:6.44156 
1 1:0.144614 2:1.38072 3:0.191976 4:1.86181 5:-0.20327 6:-5.82643 7:2.2371 8:4.48374 
1 1:0.11811 2:0.878396 3:-2.52959 4:5.02665 5:-1.20863 6:-1.02767 7:1.59779 8:-14.6803 
1 1:0.16222 2:0.867103 3:-2.50107 4:4.99473 5:-1.22228 6:-1.05186 7:1.49374 8:-14.611 
1 1:0.20633 2:0.855809 3:-2.47254 4:4.96281 5:-1.23593 6:-1.07604 7:1.38969 8:-14.5417 
1 1:0.229643 2:1.32724 3:-2.02574 4:5.61085 5:-0.709689 6:0.0066049 7:2.46355 8:-14.9485 
0.56231655535718295 1:-0.194432 2:1.20624 3:-2.34637 4:4.25212 5:0.195035 6:-1.975 7:1.59736 8:-15.7431 
1 1:-0.190659 2:0.95745 3:-2.72928 4:5.25008 5:-1.11309 6:-0.858395 7:2.32616 8:-15.1653 
1 1:-0.146549 2:0.946156 3:-2.70075 4:5.21816 5:-1.12674 6:-0.882578 7:2.2221 8:-15.096 
1 1:-0.228517 2:0.916698 3:-0.77765 4:-4.26709 5:0.973656 6:-1.49267 7:-1.52771 8:12.8514 
1 1:-0.384397 2:1.44881 3:-1.12435 4:-4.2306 5:0.956662 6:-1.36717 7:-1.09063 8:12.9561 
1 1:-0.279393 2:1.1896 3:-0.920178 4:-4.24026 5:0.957375 6:-1.41965 7:-1.32838 8:12.8625 
1 1:-0.279393 2:1.1896 3:-0.920178 4:-4.24026 5:0.957375 6:-1.41965 7:-1.32838 8:12.8625 
1 1:-0.279393 2:1.1896 3:-0.920178 4:-4.24026 5:0.957375 6:-1.41965 7:-1.32838 8:12.8625 
1 1:0.03887 2:0.698577 3:-0.388541 4:-4.22528 5:0.927668 6:-1.48355 7:-1.88069 8:12.5099 
1 1:0.131856 2:0.544684 3:-0.286281 4:-4.1406 5:0.913378 6:-1.55491 7:-2.06273 8:12.3997 
1 1:-0.616042 2:1.60017 3:-2.22843 4:2.40754 5:-1.49854 6:6.02664 7:-0.0782037 8:3.46273 
1 1:-0.740748 2:-0.193545 3:0.618749 4:4.16041 5:-0.216492 6:-2.90075 7:1.14512 8:-17.3852 
1 1:-0.740748 2:-0.193545 3:0.618749 4:4.16041 5:-0.216492 6:-2.90075 7:1.14512 8:-17.3852 
1 1:-0.597658 2:0.931235 3:-0.589471 4:-1.13754 5:-0.623767 6:-1.89275 7:2.78919 8:14.9298 
1 1:-0.2699 2:1.34373 3:0.554722 4:-2.02624 5:-0.855615 6:-0.921056 7:2.12538 8:14.3301 
0.88545631593439544 1:-0.190058 2:1.37069 3:0.505198 4:-2.05869 5:-0.848469 6:-0.760649 7:2.00108 8:14.2741 
1 1:-0.342467 2:1.27467 3:0.620748 4:-2.14585 5:-0.860086 6:-0.911154 7:2.14108 8:14.3181 
1 1:-0.601659 2:0.0219371 3:0.720443 4:0.438466 5:-0.623317 6:-2.109 7:2.34805 8:14.3087 
1 1:-0.601659 2:0.0219371 3:0.720443 4:0.438466 5:-0.623317 6:-2.109 7:2.34805 8:14.3087 
1 1:-0.601659 2:0.0219371 3:0.720443 4:0.438466 5:-0.623317 6:-2.109 7:2.34805 8:14.3087 
1 1:-0.618085 2:0.867423 3:-0.698941 4:-1.14315 5:-0.598263 6:-1.87169 7:2.77798 8:14.9433 
1 1:-0.607872 2:0.899329 3:-0.644206 4:-1.14035 5:-0.611015 6:-1.88222 7:2.78358 8:14.9366 
1 1:-0.597658 2:0.931235 3:-0.589471 4:-1.13754 5:-0.623767 6:-1.89275 7:2.78919 8:14.9298 
1 1:-0.451243 2:1.13952 3:0.565014 4:-0.659183 5:-0.807839 6:-2.1049 7:2.74756 8:14.6597 
1 1:-0.462813 2:1.05355 3:0.57697 4:-0.574748 5:-0.793645 6:-2.10521 7:2.71683 8:14.6327 
1 1:-0.462813 2:1.05355 3:0.57697 4:-0.574748 5:-0.793645 6:-2.10521 7:2.71683 8:14.6327 
1 1:0.126025 2:1.10198 3:-0.585713 4:-4.1797 5:0.546079 6:-3.87975 7:-0.776058 8:9.22384 
1 1:0.139346 2:1.31866 3:-0.750542 4:-4.15562 5:0.448901 6:-3.7918 7:-0.760443 8:9.19058 
1 1:-0.380755 2:1.86496 3:-1.84369 4:-6.3701 5:-0.414643 6:4.01448 7:-0.462088 8:-2.08359 
1 1:-0.429895 2:1.90087 3:-1.91669 4:-6.37618 5:-0.462007 6:4.20769 7:-0.41799 8:-2.19584 
1 1:-0.728481 2:1.51667 3:-0.848928 4:-6.44411 5:-0.519017 6:4.39387 7:1.0451 8:-1.34165 
1 1:-0.728481 2:1.51667 3:-0.848928 4:-6.44411 5:-0.519017 6:4.39387 7:1.0451 8:-1.34165 
1 1:0.0845592 2:0.538184 3:0.522387 4:-0.891436 5:-0.38731 6:1.63582 7:2.12213 8:-13.7111 
1 1:-0.714145 2:0.900617 3:-0.120652 4:-0.658861 5:0.62116 6:2.35318 7:0.675323 8:-13.8928 
1 1:-0.693761 2:0.910015 3:-0.113934 4:-0.5984 5:0.613673 6:2.35761 7:0.748724 8:-13.8811 
0.36356533582433576 1:0.0154916 2:1.451 3:-0.247663 4:-0.376263 5:0.597178 6:2.21896 7:2.01005 8:-13.5349 
1 1:0.041428 2:1.49358 3:-0.310459 4:-0.51768 5:0.578125 6:2.19758 7:2.00932 8:-13.6184 
0.30342409458844677 1:0.0101295 2:1.52528 3:-0.493757 4:-0.761451 5:0.419981 6:2.20205 7:2.0723 8:-14.0985 
1 1:0.123776 2:1.94956 3:-0.922072 4:3.55619 5:-0.984328 6:4.11595 7:0.423898 8:-1.69417 
1 1:0.167323 2:1.96682 3:-0.954641 4:3.4 5:-0.97534 6:4.05663 7:0.397106 8:-1.78425 
1 1:0.383982 2:0.808546 3:-0.396127 4:6.75312 5:1.04965 6:-3.95981 7:1.90034 8:-8.7699 
0.30603002370237958 1:-0.150491 2:0.766015 3:-0.723592 4:6.33956 5:0.639843 6:-3.58531 7:1.80954 8:-7.90747 
1 1:-0.166303 2:0.604522 3:-0.653217 4:6.2716 5:0.501439 6:-3.63463 7:1.74147 8:-7.88785 
1 1:0.346031 2:0.87229 3:-0.452739 4:6.74697 5:1.07316 6:-3.90805 7:1.92114 8:-8.7062 
0.75334698185505355 1:0.30808 2:0.936035 3:-0.50935 4:6.74082 5:1.09668 6:-3.8563 7:1.94193 8:-8.64251 
1 1:-0.158397 2:0.685269 3:-0.688405 4:6.30558 5:0.570641 6:-3.60997 7:1.7755 8:-7.89766 
1 1:-0.150491 2:0.766015 3:-0.723592 4:6.33956 5:0.639843 6:-3.58531 7:1.80954 8:-7.90747 
1 1:0.0785371 2:1.60334 3:-0.95512 4:6.63209 5:0.96795 6:-2.92831 7:2.24073 8:-7.78894 
1 1:-0.69659 2:1.23222 3:-0.0205097 4:-3.78708 5:0.660695 6:-2.31021 7:0.768822 8:-2.9276 
1 1:-0.69659 2:1.23222 3:-0.0205097 4:-3.78708 5:0.660695 6:-2.31021 7:0.768822 8:-2.9276 
1 1:-0.699609 2:1.25522 3:-0.00338284 4:-3.75541 5:0.681779 6:-2.29413 7:0.788874 8:-2.91259 
1 1:-0.676868 2:1.62613 3:0.306342 4:-3.23659 5:1.02662 6:-2.03742 7:1.10498 8:-2.69988 
1 1:0.0322313 2:0.959071 3:-0.0255632 4:-5.66379 5:0.0190922 6:-5.85662 7:1.36709 8:-6.34452 
1 1:-0.0951505 2:1.40699 3:0.360492 4:-4.78165 5:-1.37832 6:-5.7078 7:1.76524 8:-5.8169 
1 1:-0.121255 2:1.44941 3:0.373032 4:-4.8041 5:-1.36423 6:-5.70811 7:1.81089 8:-5.86097 
1 1:0.131839 2:1.89915 3:-2.05168 4:-1.21156 5:-0.247274 6:-5.66834 7:-0.347222 8:-7.01534 
1 1:-0.18923 2:1.72023 3:-1.78649 4:-0.991224 5:-0.45695 6:-6.17503 7:-0.245457 8:-6.90958 
1 1:-0.0822369 2:1.67146 3:-1.83124 4:-0.842148 5:-0.333905 6:-6.07788 7:-0.300257 8:-6.89722 
1 1:0.134973 2:1.86549 3:-1.88505 4:-1.00086 5:-0.333656 6:-5.84221 7:-0.380642 8:-7.01726 
1 1:-0.067947 2:0.678859 3:-0.139417 4:-4.14469 5:0.907035 6:-4.22208 7:-0.876376 8:9.04614 
1 1:-0.00184904 2:1.76418 3:-1.61869 4:-0.530737 5:-0.530764 6:4.12438 7:-0.985976 8:-5.30656 
1 1:-0.0309172 2:1.74434 3:-1.6245 4:-0.523394 5:-0.529148 6:4.15469 7:-0.992138 8:-5.28792 
1 1:-0.523402 2:1.51535 3:-1.81803 4:1.53617 5:-0.270125 6:2.59857 7:0.0603302 8:-7.51614 
1 1:-0.580338 2:1.60565 3:-1.84756 4:1.6496 5:-0.161144 6:2.52737 7:-0.0624588 8:-7.51152 
1 1:-0.608805 2:1.65081 3:-1.86233 4:1.70631 5:-0.106653 6:2.49177 7:-0.123853 8:-7.50922 
1 1:0.381525 2:1.26649 3:-2.3545 4:5.34404 5:-0.828782 6:-1.68311 7:0.753869 8:-13.6379 
1 1:0.16235 2:1.77379 3:-0.281922 4:6.24421 5:-0.830435 6:-3.0878 7:0.357035 8:-11.9836 
1 1:0.246198 2:1.85194 3:-0.547929 4:6.28313 5:-0.795976 6:-2.97342 7:0.278549 8:-12.0482 
1 1:-0.265982 2:0.938635 3:-0.3115 4:-5.8387 5:-0.483976 6:6.37804 7:1.31843 8:-13.363 
0.44917321826986994 1:-0.261011 2:0.957011 3:-0.205617 4:-5.94826 5:-0.541885 6:6.57954 7:1.30038 8:-13.3131 
1 1:-0.456736 2:0.599938 3:-0.234849 4:-6.13742 5:-0.329624 6:6.73475 7:1.06303 8:-13.1162 
1 1:-0.289888 2:0.884547 3:-0.249746 4:-5.96647 5:-0.50343 6:6.56534 7:1.22922 8:-13.2472 
0.87330110748196144 1:-0.25604 2:0.975387 3:-0.0997339 4:-6.05783 5:-0.599794 6:6.78104 7:1.28234 8:-13.2633 
1 1:-0.0613624 2:1.45507 3:0.0503435 4:-5.76607 5:-0.782114 6:6.57819 7:1.80754 8:-13.7998 
1 1:-0.0300004 2:1.53672 3:0.147414 4:-5.80265 5:-0.849523 6:6.69313 7:1.86968 8:-13.8409 
1 1:-0.0935264 2:0.65362 3:-1.56731 4:6.49955 5:-0.168889 6:-1.38974 7:2.05828 8:-6.60327 
1 1:-0.265027 2:-0.113931 3:0.153151 4:2.31283 5:-0.732727 6:-1.55397 7:2.33284 8:7.82711 
1 1:-0.241446 2:-0.21976 3:0.214491 4:2.66856 5:-0.60058 6:-1.61995 7:2.16675 8:7.74948 
1 1:-0.257437 2:-0.0799287 3:0.17012 4:2.18657 5:-0.763571 6:-1.50869 7:2.37498 8:7.84568 
0.34745015081822839 1:-0.249847 2:-0.0459268 3:0.187088 4:2.0603 5:-0.794415 6:-1.46342 7:2.41712 8:7.86425 
1 1:-0.204771 2:0.116755 3:-0.126942 4:0.952913 5:-1.28073 6:-1.10598 7:2.76156 8:8.08845 
1 1:-0.2268 2:1.51855 3:-0.356829 4:1.90307 5:1.25052 6:0.909128 7:-0.307835 8:2.62446 
0.59559045655534681 1:-0.2268 2:1.51855 3:-0.356829 4:1.90307 5:1.25052 6:0.909128 7:-0.307835 8:2.62446 
1 1:0.175117 2:1.10369 3:-0.317127 4:2.08485 5:1.23784 6:0.67279 7:-0.611149 8:2.70312 
1 1:0.129887 2:0.632902 3:0.452032 4:6.84781 5:-0.883563 6:-2.35197 7:-0.830481 8:-3.19513 
1 1:0.142387 2:0.628692 3:0.403915 4:6.83775 5:-0.900932 6:-2.3353 7:-0.816566 8:-3.12724 
1 1:0.217387 2:0.60343 3:0.115212 4:6.77738 5:-1.00515 6:-2.2353 7:-0.733076 8:-2.71991 
1 1:-0.550111 2:1.8845 3:-2.33832 4:2.77346 5:0.0243118 6:-5.97057 7:-0.65763 8:15.9022 
1 1:-0.558457 2:1.92519 3:-2.35118 4:2.79733 5:-0.00955677 6:-6.01917 7:-0.5369 8:15.884 
1 1:-0.448246 2:1.75091 3:-2.48017 4:2.81452 5:-0.0964011 6:-5.81094 7:-0.811702 8:15.7842 
1 1:-0.0820451 2:1.78514 3:-2.39234 4:2.48071 5:-0.900852 6:-6.48443 7:1.17984 8:15.7898 
1 1:-0.0246642 2:1.70756 3:-2.35685 4:2.3959 5:-0.922498 6:-6.46204 7:1.15966 8:15.8267 
0.73150770581806412 1:0.219204 2:1.37785 3:-2.20604 4:2.03545 5:-1.01449 6:-6.36692 7:1.0739 8:15.9835 
1 1:-0.625158 2:1.15263 3:-1.64526 4:3.2168 5:-0.66366 6:-6.70047 7:1.4923 8:14.8776 
1 1:-0.548397 2:2.23921 3:-2.63452 4:3.10086 5:-0.502824 6:-6.39422 7:0.637062 8:15.5666 
0.81214750252298162 1:-0.0246642 2:1.70756 3:-2.35685 4:2.3959 5:-0.922498 6:-6.46204 7:1.15966 8:15.8267 
1 1:-0.290061 2:1.61174 3:-0.324784 4:5.29291 5:-0.647495 6:4.84181 7:0.695442 8:-16.0167 
1 1:0.187698 2:0.90836 3:-0.00562719 4:5.54799 5:-0.819952 6:4.72817 7:0.798881 8:-15.8337 
1 1:0.134614 2:0.986514 3:-0.0410891 4:5.51964 5:-0.80079 6:4.7408 7:0.787387 8:-15.8541 
1 1:-0.549878 2:0.765237 3:-0.13524 4:-0.369525 5:0.975832 6:-5.96372 7:0.849418 8:-15.5161 
1 1:-0.710606 2:0.936863 3:-0.0388462 4:-0.356165 5:1.01463 6:-5.87658 7:0.91525 8:-15.5183 
1 1:-0.201347 2:0.56213 3:0.345021 4:1.93727 5:-0.772236 6:-1.70268 7:-0.816398 8:-9.04216 
1 1:-0.199788 2:0.541313 3:0.367343 4:1.95696 5:-0.788407 6:-1.70472 7:-0.823992 8:-9.04465 
1 1:0.128704 2:1.9328 3:-2.21832 4:-1.42226 5:-0.160893 6:-5.49446 7:-0.313802 8:-7.01342 
1 1:0.122434 2:2.00011 3:-2.55159 4:-1.84367 5:0.0118695 6:-5.14671 7:-0.246962 8:-7.00958 
1 1:0.0297327 2:1.87841 3:-1.9951 4:2.48482 5:0.00839834 6:6.19091 7:0.878432 8:11.5136 
1 1:-0.160529 2:1.18494 3:-2.33891 4:2.83078 5:-0.759034 6:5.33612 7:0.628732 8:11.2502 
1 1:-0.197518 2:1.33482 3:-1.98507 4:3.43598 5:-0.806257 6:6.21385 7:0.322686 8:11.7116 
1 1:0.369556 2:1.54183 3:-0.478393 4:1.95561 5:-0.705515 6:3.36224 7:0.482587 8:-7.43533 
0.37463302411126775 1:0.302889 2:1.28687 3:-0.73208 4:1.53883 5:-0.896366 6:3.36712 7:0.714693 8:-7.46821 
1 1:0.307755 2:1.45951 3:-0.620004 4:1.80394 5:-0.74645 6:3.32908 7:0.537245 8:-7.44947 
1 1:-0.285699 2:1.05345 3:-0.846307 4:5.63646 5:-0.767009 6:-2.63645 7:-0.855012 8:-17.4132 
1 1:-0.329011 2:1.06954 3:-0.787086 4:5.58508 5:-0.793932 6:-2.67424 7:-0.787666 8:-17.4305 
1 1:-0.422967 2:1.06257 3:-0.758023 4:5.50929 5:-0.865561 6:-2.69494 7:-0.73363 8:-17.3945 
1 1:-0.740579 2:1.42648 3:-2.78677 4:-2.64842 5:-0.525741 6:2.7934 7:0.904964 8:5.66584 
1 1:-0.592285 2:1.58992 3:-1.6389 4:3.5262 5:0.246628 6:0.93085 7:-2.94942 8:-14.6791 
1 1:-0.549616 2:1.50157 3:-1.72695 4:3.44868 5:0.186532 6:0.914198 7:-2.94907 8:-14.5932 
1 1:-0.625275 2:1.39891 3:-1.88718 4:3.51455 5:0.153891 6:0.8212 7:-2.86115 8:-14.569 
1 1:-0.468029 2:1.44686 3:-2.18159 4:2.79452 5:1.14683 6:-6.27648 7:-2.89603 8:4.56209 
1 1:-0.469208 2:1.45241 3:-2.0848 4:2.78333 5:1.0677 6:-6.30274 7:-2.74693 8:4.50527 
1 1:-0.422772 2:1.80713 3:-0.413439 4:5.22205 5:-0.59959 6:4.87338 7:0.666709 8:-16.0675 
1 1:-0.460507 2:0.276943 3:0.14653 4:0.0528135 5:0.526151 6:4.10353 7:2.02684 8:3.67916 
1 1:-0.489855 2:1.17045 3:-1.18575 4:4.33411 5:1.42664 6:6.09621 7:-1.50648 8:-17.7298 
1 1:-0.183968 2:1.47319 3:-1.3722 4:4.24459 5:1.4535 6:6.1635 7:-1.58491 8:-17.5869 
1 1:-0.489855 2:1.17045 3:-1.18575 4:4.33411 5:1.42664 6:6.09621 7:-1.50648 8:-17.7298 
1 1:-0.489855 2:1.17045 3:-1.18575 4:4.33411 5:1.42664 6:6.09621 7:-1.50648 8:-17.7298 
1 1:-0.466758 2:0.5597 3:-0.461541 4:0.908151 5:0.465173 6:-2.90621 7:2.46076 8:1.58284 
1 1:-0.706463 2:0.878581 3:-0.46924 4:1.97386 5:-0.203702 6:-4.0467 7:2.24823 8:2.78786 
1 1:-0.616372 2:0.788419 3:-0.524443 4:1.92079 5:0.00466075 6:-3.58967 7:2.4746 8:2.69299 
1 1:-0.493173 2:0.58259 3:-0.5472 4:1.45784 5:0.338995 6:-2.94812 7:2.63881 8:2.15843 
1 1:-0.611533 2:1.5486 3:-1.91 4:2.36756 5:0.709719 6:-5.56941 7:-2.07823 8:16.3625 
1 1:-0.636999 2:1.582 3:-1.87453 4:2.35729 5:0.739898 6:-5.60932 7:-2.03971 8:16.392 
0.24837982991082533 1:-0.471424 2:0.904224 3:-0.347433 4:5.33091 5:0.12115 6:-4.4542 7:1.31866 8:-12.1848 
0.58710973045130099 1:-0.373277 2:0.975897 3:-0.95526 4:5.40028 5:0.201411 6:-4.62397 7:1.43927 8:-12.5884 
1 1:0.00887581 2:1.0537 3:0.545106 4:5.29824 5:-0.326956 6:-4.27107 7:1.41553 8:-11.4929 
1 1:0.13438 2:1.10509 3:0.541265 4:5.31252 5:-0.392499 6:-4.28538 7:1.4711 8:-11.4756 
0.99826361519811502 1:0.00248094 2:1.58881 3:0.303217 4:1.22234 5:-0.143867 6:-1.8898 7:-0.156758 8:-8.70008 
1 1:0.293087 2:1.48131 3:-2.68915 4:2.83219 5:-0.289113 6:0.78142 7:1.37098 8:-5.00202 
1 1:0.213008 2:1.3163 3:-2.75461 4:2.70523 5:-0.198996 6:0.681388 7:1.23626 8:-4.66401 
1 1:0.409018 2:1.48386 3:-2.70885 4:2.86032 5:-0.251245 6:0.718587 7:1.2838 8:-4.84021 
1 1:0.426945 2:1.40262 3:-2.75143 4:2.8109 5:-0.187252 6:0.637155 7:1.17286 8:-4.5903 
1 1:-0.480896 2:0.861397 3:0.0523918 4:-0.244588 5:0.0297808 6:0.0731209 7:-0.59774 8:-13.6957 
1 1:-0.381012 2:0.812072 3:0.0251405 4:-0.0479878 5:-0.0715981 6:-0.566364 7:-0.512979 8:-13.7519 
1 1:-0.381012 2:0.812072 3:0.0251405 4:-0.0479878 5:-0.0715981 6:-0.566364 7:-0.512979 8:-13.7519 
1 1:-0.128975 2:0.875892 3:-0.398099 4:-3.56776 5:-1.14351 6:1.04566 7:-2.78804 8:6.83157 
1 1:-0.163891 2:0.733299 3:-0.330498 4:-3.49311 5:-1.00649 6:1.03188 7:-2.71868 8:6.59864 
1 1:-0.391365 2:1.89573 3:-1.90074 4:-4.17977 5:-1.00888 6:-4.71969 7:-0.128785 8:12.6225 
1 1:-0.661575 2:1.47483 3:-1.89652 4:-4.37409 5:-1.22522 6:-4.37606 7:0.489436 8:12.5801 
0.33035908291740124 1:-0.592644 2:1.61809 3:-1.9652 4:-4.28858 5:-1.22855 6:-4.41763 7:0.324725 8:12.5704 
0.9433609500317498 1:-0.592644 2:1.61809 3:-1.9652 4:-4.28858 5:-1.22855 6:-4.41763 7:0.324725 8:12.5704 
1 1:0.322114 2:1.11605 3:0.229255 4:-4.94516 5:-0.858471 6:-4.9637 7:1.31807 8:16.8038 
1 1:0.40804 2:0.846754 3:0.153037 4:-5.25124 5:-1.12088 6:-4.66954 7:1.55355 8:16.4679 
1 1:-0.741168 2:0.11584 3:0.078145 4:-0.310601 5:0.340553 6:-3.78779 7:2.05755 8:1.00167 
0.19489573010425801 1:-0.53624 2:0.601286 3:0.132897 4:0.0644848 5:0.847944 6:-3.33587 7:2.73918 8:1.52526 
1 1:-0.569259 2:2.16757 3:-2.69066 4:5.33133 5:-0.213885 6:3.37583 7:2.2092 8:-4.82503 
0.78911454322311336 1:-0.455249 2:1.96256 3:-2.66607 4:4.87235 5:-0.0752811 6:3.20464 7:2.1981 8:-4.69012 
0.4625725481294915 1:-0.561245 2:2.00273 3:-2.63571 4:4.7472 5:-0.0751765 6:3.43339 7:2.19689 8:-4.65446 
1 1:-0.565273 2:2.17605 3:-2.66775 4:5.08504 5:-0.132865 6:3.33462 7:2.02277 8:-4.66425 
1 1:-0.591731 2:2.00429 3:-2.65103 4:4.96221 5:-0.156171 6:3.53179 7:2.38303 8:-4.80633 
1 1:0.0554801 2:1.19914 3:0.0100499 4:1.83646 5:-0.0158297 6:-5.05916 7:2.44306 8:4.05918 
0.53202173800588481 1:0.0554801 2:1.19914 3:0.0100499 4:1.83646 5:-0.0158297 6:-5.05916 7:2.44306 8:4.05918 
1 1:0.100525 2:1.15406 3:-0.0175516 4:1.80992 5:0.0883518 6:-4.83065 7:2.55624 8:4.01174 
1 1:0.100525 2:1.15406 3:-0.0175516 4:1.80992 5:0.0883518 6:-4.83065 7:2.55624 8:4.01174 
1 1:0.100525 2:1.15406 3:-0.0175516 4:1.80992 5:0.0883518 6:-4.83065 7:2.55624 8:4.01174 
1 1:0.235183 2:1.15469 3:0.0182083 4:1.76953 5:0.202995 6:-4.75726 7:2.67963 8:4.12915 
1 1:0.079308 2:0.47743 3:-0.306108 4:5.84884 5:0.482383 6:-5.64908 7:-2.00768 8:-2.11933 
1 1:0.0810106 2:1.63587 3:-2.22397 4:-3.4287 5:-0.744219 6:-6.63502 7:-1.35393 8:-11.0345 
1 1:-0.153348 2:1.82358 3:-2.24576 4:-3.63755 5:-0.64506 6:-6.69188 7:-1.53871 8:-11.1782 
0.0598103296434606 1:-0.39936 2:1.859 3:-2.29574 4:-3.54462 5:-0.5237 6:-6.57025 7:-1.59427 8:-10.6688 
1 1:-0.183963 2:1.25108 3:-1.41332 4:-0.260639 5:0.759141 6:1.84898 7:0.158475 8:10.021 
0.6723509376840574 1:-0.193598 2:0.944629 3:-0.526931 4:0.574419 5:0.573907 6:0.150487 7:-0.974311 8:10.1849 
1 1:-0.233391 2:0.761541 3:-0.526552 4:0.409063 5:0.482541 6:0.354621 7:-0.976603 8:10.1174 
1 1:-0.29138 2:0.953157 3:-0.66873 4:0.535761 5:0.602304 6:0.342641 7:-0.91414 8:10.152 
1 1:0.262381 2:1.52791 3:-1.38498 4:-2.48134 5:-0.286329 6:-1.46092 7:1.02499 8:-10.173 
1 1:-0.531963 2:1.40932 3:-1.83977 4:-2.71769 5:-0.474577 6:-0.966931 7:0.701573 8:-10.8604 
1 1:-0.52467 2:0.0609198 3:0.441087 4:4.98422 5:0.249425 6:-1.54835 7:1.32848 8:-1.14461 
1 1:-0.538826 2:0.751496 3:-2.28385 4:5.32319 5:0.395656 6:-4.12312 7:1.89331 8:-12.3854 
1 1:-0.563363 2:0.733577 3:-2.13189 4:5.30585 5:0.37559 6:-4.08067 7:1.86316 8:-12.2845 
0.019007595421334567 1:-0.549016 2:0.754006 3:-2.47103 4:5.3355 5:0.36696 6:-3.58824 7:1.78695 8:-12.012 
1 1:-0.562305 2:0.755416 3:-2.25515 4:5.32766 5:0.323534 6:-3.45381 7:1.69237 8:-11.8346 
1 1:-0.562305 2:0.755416 3:-2.25515 4:5.32766 5:0.323534 6:-3.45381 7:1.69237 8:-11.8346 
1 1:-0.575337 2:0.741586 3:-2.27252 4:5.32011 5:0.326611 6:-3.42233 7:1.70375 8:-11.8009 
1 1:-0.550036 2:0.764375 3:-2.33113 4:5.33633 5:0.333567 6:-3.47503 7:1.70744 8:-11.8851 
1 1:-0.0975448 2:0.670624 3:-0.481585 4:0.212355 5:-0.11849 6:3.16789 7:-2.61292 8:17.1667 
1 1:-0.0975448 2:0.670624 3:-0.481585 4:0.212355 5:-0.11849 6:3.16789 7:-2.61292 8:17.1667 
1 1:-0.153403 2:1.26431 3:0.296347 4:3.18184 5:-1.10674 6:0.56131 7:-0.29243 8:1.22967 
1 1:-0.149979 2:1.30691 3:0.341711 4:3.25662 5:-1.10364 6:0.556463 7:-0.230941 8:1.26951 
0.12192477106959851 1:-0.605802 2:1.39973 3:1.20865 4:5.02523 5:-0.107569 6:0.40017 7:0.741645 8:1.8634 
1 1:-0.649208 2:1.34003 3:1.20907 4:5.05421 5:-0.0294585 6:0.394821 7:0.725336 8:1.84982 
1 1:0.228572 2:1.64249 3:1.09006 4:4.54602 5:-0.901459 6:0.462273 7:0.587609 8:2.16225 
1 1:-0.15404 2:1.8717 3:1.12659 4:4.72879 5:-0.857595 6:0.46465 7:0.723333 8:2.06298 
1 1:-0.377916 2:1.63847 3:-1.82458 4:-4.74619 5:0.280234 6:-5.22986 7:1.82787 8:-6.76621 
1 1:-0.444369 2:1.66986 3:-2.02131 4:-4.52046 5:0.237898 6:-5.33038 7:1.78048 8:-6.80313 
1 1:-0.411142 2:1.65417 3:-1.92294 4:-4.63332 5:0.259066 6:-5.28012 7:1.80417 8:-6.78467 
1 1:0.0740329 2:1.44299 3:-1.77879 4:-3.74256 5:-1.4134 6:-6.43258 7:-0.982729 8:1.58026 
1 1:-0.49303 2:0.851203 3:-2.17065 4:-4.83922 5:0.255994 6:-2.42873 7:1.53308 8:-16.4704 
1 1:-0.44949 2:0.910051 3:-2.11728 4:-5.00402 5:0.186757 6:-2.40286 7:1.45943 8:-16.4558 
1 1:-0.484799 2:0.724089 3:-2.24234 4:-4.39135 5:0.503649 6:-2.38335 7:1.83369 8:-16.4033 
1 1:-0.275925 2:0.901883 3:-0.523266 4:-5.61958 5:-0.368159 6:5.97505 7:1.35451 8:-13.4626 
1 1:-0.741308 2:1.37632 3:-0.901977 4:-6.10831 5:1.10043 6:0.315024 7:0.668824 8:-8.17123 
1 1:-0.613114 2:1.1414 3:-1.12235 4:-5.95544 5:1.01245 6:0.422729 7:0.422502 8:-8.4544 
1 1:-0.591733 2:1.30708 3:-0.979261 4:-6.08834 5:1.07292 6:0.476355 7:0.459937 8:-8.41237 
0.23976946367460952 1:-0.506254 2:1.3553 3:-0.946358 4:-6.14481 5:1.08939 6:0.583833 7:0.374211 8:-8.51193 
1 1:-0.719927 2:1.54201 3:-0.758887 4:-6.24121 5:1.1609 6:0.368649 7:0.706258 8:-8.1292 
1 1:-0.525434 2:1.62967 3:-0.141437 4:-6.58455 5:1.15508 6:0.415273 7:1.30496 8:-7.64505 
1 1:-0.64579 2:1.05054 3:-0.554367 4:5.68776 5:-0.0826121 6:5.25986 7:-2.38733 8:3.67196 
1 1:-0.64579 2:1.05054 3:-0.554367 4:5.68776 5:-0.0826121 6:5.25986 7:-2.38733 8:3.67196 
1 1:0.155925 2:1.72895 3:-2.51705 4:4.49376 5:-0.96796 6:1.49588 7:-1.52684 8:0.479139 
1 1:0.155925 2:1.72895 3:-2.51705 4:4.49376 5:-0.96796 6:1.49588 7:-1.52684 8:0.479139 
1 1:0.155925 2:1.72895 3:-2.51705 4:4.49376 5:-0.96796 6:1.49588 7:-1.52684 8:0.479139 
1 1:-0.279576 2:0.905303 3:-0.0756462 4:1.4298 5:-0.364259 6:-6.08034 7:-0.848771 8:9.30147 
1 1:-0.152294 2:0.521565 3:-0.0581209 4:1.0628 5:-0.8223 6:-6.01173 7:-0.756643 8:8.46448 
1 1:-0.0688573 2:0.910569 3:-0.127953 4:1.40428 5:-0.554343 6:-5.99967 7:-0.82595 8:9.25112 
1 1:-0.123662 2:0.97783 3:-0.0601203 4:1.20924 5:-0.549846 6:-6.14337 7:-0.971997 8:9.29837 
1 1:-0.115425 2:1.01896 3:-0.121552 4:1.27029 5:-0.487903 6:-6.08632 7:-0.982352 8:9.30889 
1 1:-0.372653 2:0.938861 3:-2.01967 4:4.0242 5:-0.160362 6:-3.62203 7:2.52839 8:-11.1694 
1 1:-0.372653 2:0.938861 3:-2.01967 4:4.0242 5:-0.160362 6:-3.62203 7:2.52839 8:-11.1694 
1 1:-0.285197 2:1.03402 3:-1.87272 4:3.91939 5:-0.242025 6:-3.73535 7:2.53155 8:-11.2074 
1 1:-0.681995 2:0.208213 3:0.598507 4:-6.69786 5:-0.178778 6:-5.58231 7:1.45848 8:13.2319 
1 1:-0.475302 2:0.940285 3:1.02801 4:-6.74567 5:-0.0122629 6:-6.31024 7:1.41193 8:12.4516 
1 1:-0.463967 2:0.936458 3:1.00314 4:-6.74259 5:-0.0350782 6:-6.25098 7:1.4727 8:12.4484 
1 1:-0.596063 2:1.25171 3:-1.37578 4:-1.70656 5:-0.848619 6:-2.32727 7:-2.07596 8:-6.96167 
1 1:-0.120709 2:1.59598 3:-2.4406 4:-0.547809 5:-0.855575 6:1.67549 7:2.15285 8:-8.57496 
0.67240775707150435 1:-0.130048 2:1.53778 3:-2.49789 4:-0.496428 5:-0.804332 6:1.64117 7:2.10019 8:-8.42531 
1 1:-0.289723 2:0.619734 3:0.316363 4:-4.76677 5:-0.601166 6:0.50703 7:1.12419 8:14.013 
0.0038782752294183411 1:0.153178 2:1.34006 3:-1.65718 4:-6.31463 5:-0.071127 6:0.826342 7:1.91856 8:14.1236 
1 1:-0.0314246 2:0.890539 3:-1.13254 4:-6.42759 5:-0.145847 6:0.631622 7:1.57767 8:14.2592 
1 1:0.16919 2:0.887669 3:-1.44838 4:-6.20925 5:-0.218417 6:1.16983 7:1.38603 8:14.1093 
1 1:0.16919 2:0.887669 3:-1.44838 4:-6.20925 5:-0.218417 6:1.16983 7:1.38603 8:14.1093 
1 1:0.132587 2:1.47682 3:-0.551394 4:2.30701 5:-0.0932247 6:-1.93369 7:-0.383217 8:-17.9067 
1 1:0.132587 2:1.47682 3:-0.551394 4:2.30701 5:-0.0932247 6:-1.93369 7:-0.383217 8:-17.9067 
1 1:-0.599926 2:1.4076 3:-2.21731 4:1.21571 5:-0.157359 6:-1.87697 7:1.76468 8:11.2356 
1 1:-0.664405 2:1.49241 3:-2.12588 4:1.22767 5:-0.169887 6:-1.87154 7:1.58817 8:11.1899 
0.8122558968832494 1:-0.521223 2:1.47555 3:-2.1135 4:1.27135 5:-0.000449384 6:-1.80128 7:1.57526 8:11.1962 
0.48755883549204426 1:-0.392266 2:1.30594 3:-2.29635 4:1.24743 5:0.0246055 6:-1.81214 7:1.92828 8:11.2875 
1 1:-0.678629 2:1.33964 3:-2.32111 4:1.16007 5:-0.314269 6:-1.95267 7:1.95411 8:11.275 
1 1:-0.422972 2:1.62284 3:-0.14964 4:-2.90313 5:0.853618 6:1.83756 7:0.333169 8:-3.8969 
1 1:0.226146 2:0.769405 3:-0.431162 4:5.36651 5:0.924989 6:6.28995 7:-0.913072 8:0.210343 
1 1:-0.114137 2:1.76101 3:-1.83358 4:-3.50912 5:0.535559 6:2.20819 7:1.5469 8:-18.5606 
1 1:0.128899 2:1.68733 3:-1.96192 4:-3.24694 5:0.581853 6:2.08089 7:1.58258 8:-18.5789 
1 1:-0.506115 2:1.41377 3:-0.967581 4:0.883971 5:0.764592 6:-3.51485 7:2.31723 8:-16.8324 
1 1:-0.416752 2:1.41752 3:-0.943009 4:0.841235 5:0.89426 6:-3.43358 7:2.29952 8:-16.8172 
1 1:0.000160202 2:1.6542 3:-0.31198 4:-5.72964 5:0.174377 6:-5.92502 7:-0.641115 8:-3.82844 
1 1:0.101443 2:1.19986 3:-0.218981 4:-5.69135 5:-0.140078 6:-3.93375 7:-0.712831 8:-2.64229 
1 1:0.115644 2:1.18995 3:-0.177457 4:-5.68966 5:-0.126709 6:-3.95859 7:-0.789119 8:-2.64237 
1 1:0.0684774 2:1.19829 3:-0.0870173 4:-5.62522 5:-0.155072 6:-3.99081 7:-0.896163 8:-2.71106 
1 1:-0.223439 2:1.17142 3:0.551498 4:-3.88739 5:0.480046 6:4.08364 7:2.98033 8:1.1677 
1 1:-0.336474 2:0.634181 3:-0.851596 4:-2.49703 5:-0.245982 6:4.68675 7:2.50141 8:0.32564 
1 1:-0.556106 2:0.194807 3:0.189363 4:-4.89525 5:0.664788 6:5.81753 7:1.01052 8:-4.46914 
1 1:0.11452 2:0.762153 3:-0.74417 4:-4.70627 5:-0.75297 6:5.82038 7:2.65326 8:-4.39397 
1 1:0.127317 2:0.767573 3:-0.736739 4:-4.71668 5:-0.717716 6:5.81871 7:2.63993 8:-4.39185 
0.32243175596181883 1:0.308179 2:0.963591 3:-0.379437 4:-4.98889 5:0.543142 6:5.79006 7:1.67272 8:-4.25904 
1 1:0.28849 2:0.809246 3:-0.287573 4:-5.04088 5:0.643875 6:5.77691 7:1.74795 8:-4.32816 
1 1:0.226756 2:0.754333 3:-0.246944 4:-5.03419 5:0.652564 6:5.77887 7:1.70065 8:-4.34317 
1 1:-0.602758 2:1.59659 3:-1.97118 4:2.42554 5:0.611804 6:-5.62672 7:-1.87529 8:16.2968 
1 1:-0.590025 2:1.57989 3:-1.98892 4:2.43068 5:0.596715 6:-5.60677 7:-1.89454 8:16.282 
1 1:-0.376413 2:1.36882 3:0.176531 4:5.16773 5:0.895203 6:-4.70834 7:2.01833 8:11.8121 
1 1:-0.154744 2:1.30522 3:0.344207 4:5.24034 5:0.64835 6:-4.89315 7:2.02235 8:12.0173 
1 1:-0.204954 2:1.42732 3:0.390722 4:5.45059 5:0.684738 6:-4.71979 7:2.01144 8:12.0876 
1 1:0.201524 2:1.62219 3:1.09737 4:6.04213 5:0.327159 6:-3.18273 7:0.302783 8:12.9349 
1 1:0.14818 2:1.78573 3:1.1114 4:6.41561 5:0.299063 6:-3.5555 7:0.962899 8:12.9928 
1 1:0.244685 2:1.64047 3:0.982624 4:6.15972 5:0.253982 6:-3.3019 7:0.600524 8:12.7994 
1 1:0.0351161 2:1.98544 3:-0.562524 4:-1.79062 5:-0.815536 6:1.22699 7:0.379868 8:13.37 
0.33161380513776967 1:-0.172483 2:1.81399 3:-1.1778 4:3.10946 5:0.478801 6:6.77253 7:0.534969 8:-8.44633 
1 1:-0.325122 2:1.20358 3:-1.21446 4:2.20887 5:0.614915 6:6.84543 7:0.468825 8:-7.73062 
1 1:-0.299682 2:1.30532 3:-1.20835 4:2.35897 5:0.592229 6:6.83328 7:0.479849 8:-7.84991 
1 1:-0.334532 2:1.33021 3:-1.25849 4:2.3789 5:0.527938 6:6.8192 7:0.4412 8:-7.85563 
1 1:-0.286962 2:1.35618 3:-1.20529 4:2.43402 5:0.580886 6:6.82721 7:0.485361 8:-7.90955 
0.65788968366175427 1:-0.479755 2:1.51161 3:-0.551487 4:-4.28157 5:-0.0850724 6:5.89268 7:0.615744 8:-3.84002 
0.92091328357597102 1:0.0117089 2:0.894439 3:1.11572 4:-4.56269 5:0.27014 6:1.15494 7:0.756088 8:5.06832 
1 1:0.316143 2:-0.092321 3:0.478077 4:0.619019 5:-1.30741 6:-0.229993 7:2.20628 8:7.95543 
1 1:-0.429631 2:0.00197459 3:0.551473 4:-3.2935 5:0.266127 6:-4.28193 7:0.23071 8:8.15383 
1 1:-0.237727 2:0.0944904 3:0.578965 4:-3.37642 5:0.246076 6:-4.25422 7:0.345877 8:8.23579 
1 1:-0.452991 2:1.36248 3:-1.58976 4:-5.95084 5:-0.229151 6:0.000107373 7:-0.384033 8:6.30574 
1 1:-0.60033 2:1.60258 3:-1.56119 4:-5.68857 5:-0.201887 6:0.0547213 7:-0.54045 8:6.43743 
1 1:-0.491759 2:1.40591 3:-1.54344 4:-5.93048 5:-0.187754 6:-0.0104404 7:-0.417942 8:6.29651 
1 1:-0.452684 2:1.20716 3:-1.42288 4:-1.49296 5:-0.429029 6:4.85664 7:-1.82629 8:-12.4959 
1 1:0.272932 2:0.804905 3:0.274573 4:-6.13535 5:0.315248 6:-4.54793 7:1.74739 8:0.991292 
1 1:0.132007 2:1.83198 3:0.344978 4:4.86962 5:0.267268 6:3.57202 7:0.00845506 8:-10.6937 
1 1:0.355697 2:1.51379 3:-0.410154 4:2.53498 5:0.693068 6:3.327 7:0.709736 8:-8.84737 
0.73581381975988436 1:-0.229175 2:0.996332 3:-2.54562 4:0.374257 5:-0.488076 6:1.91918 7:1.23633 8:-7.1577 
1 1:-0.523882 2:0.842046 3:-0.756519 4:-6.40143 5:0.968454 6:-0.827972 7:2.29176 8:8.73905 
1 1:-0.583412 2:0.775905 3:-0.758144 4:-6.46437 5:0.978543 6:-0.827655 7:2.27269 8:8.7753 
1 1:0.342569 2:1.17788 3:-0.37819 4:-5.40331 5:0.695506 6:-1.15224 7:2.13024 8:8.16019 
1 1:-0.614369 2:0.945761 3:-0.872013 4:-6.53443 5:1.02905 6:-0.737493 7:2.40733 8:8.8138 
1 1:-0.584912 2:0.9644 3:-0.855608 4:-6.53328 5:1.03375 6:-0.787307 7:2.41129 8:8.80367 
1 1:-0.0801413 2:1.46887 3:-0.779422 4:-6.11952 5:0.986961 6:-0.988624 7:2.55112 8:8.52747 
1 1:-0.722978 2:1.3228 3:-0.497675 4:-3.13016 5:-0.75587 6:-1.51829 7:1.26948 8:18.2161 
1 1:-0.659121 2:1.02442 3:-0.838 4:-3.21879 5:-0.521148 6:-1.30278 7:1.32165 8:17.931 
1 1:-0.757342 2:1.25231 3:-0.592823 4:-3.17781 5:-0.7423 6:-1.46056 7:1.31465 8:18.1045 
1 1:-0.398761 2:0.484175 3:0.579048 4:5.65409 5:-1.01862 6:5.23369 7:1.48099 8:-13.3778 
0.036622308199064278 1:-0.290795 2:1.32676 3:-1.58781 4:1.34757 5:-0.556134 6:2.84532 7:0.374039 8:-7.51584 
1 1:-0.537636 2:1.53793 3:-1.82541 4:1.56453 5:-0.24288 6:2.58077 7:0.0296329 8:-7.51498 
1 1:-0.233859 2:1.23646 3:-1.55828 4:1.23415 5:-0.665115 6:2.91652 7:0.496828 8:-7.52045 
0.016470105687715876 1:-0.608873 2:0.47281 3:0.18732 4:2.0654 5:1.03945 6:4.88416 7:-2.83236 8:10.4182 
1 1:-0.615795 2:0.668868 3:-0.267057 4:2.00427 5:1.28008 6:4.90323 7:-2.71043 8:9.60109 
1 1:-0.629721 2:0.713924 3:-0.0623862 4:2.01863 5:1.20083 6:4.8781 7:-2.68808 8:9.73315 
0.076802686986566948 1:0.280876 2:1.16373 3:-2.46316 4:-0.134472 5:-0.333137 6:1.53509 7:1.63446 8:-12.3239 
1 1:-0.0961633 2:2.1192 3:-1.15946 4:3.55975 5:0.410745 6:6.73608 7:0.568042 8:-8.80418 
1 1:-0.35662 2:0.823258 3:0.357713 4:-6.74625 5:0.743675 6:-0.942047 7:0.871326 8:-11.7888 
1 1:-0.539136 2:0.734871 3:0.476244 4:-6.75355 5:0.800488 6:-1.00873 7:0.823565 8:-11.7553 
1 1:0.0418111 2:1.2346 3:-2.77963 4:2.00066 5:1.15498 6:-5.51222 7:0.373958 8:-11.7998 
1 1:0.327854 2:1.5361 3:0.857353 4:5.9972 5:0.201877 6:-3.14148 7:0.403178 8:12.6205 
1 1:0.349434 2:1.54524 3:0.799981 4:6.05599 5:0.165288 6:-3.20107 7:0.552048 8:12.5528 
1 1:0.38435 2:1.5135 3:0.7391 4:6.02141 5:0.135724 6:-3.16745 7:0.535889 8:12.4706 
1 1:-0.642202 2:1.71001 3:-0.617613 4:-1.87971 5:0.950793 6:2.76062 7:0.253133 8:-12.255 
1 1:-0.602257 2:1.01271 3:-0.894601 4:1.85459 5:-0.238598 6:3.79797 7:0.870455 8:11.255 
1 1:-0.602257 2:1.01271 3:-0.894601 4:1.85459 5:-0.238598 6:3.79797 7:0.870455 8:11.255 
1 1:-0.0839493 2:0.780195 3:-1.81405 4:-1.94886 5:0.905589 6:-3.67605 7:2.56204 8:7.95938 
1 1:-0.532842 2:0.472981 3:-0.0953946 4:3.26928 5:-0.692531 6:-4.40517 7:1.09261 8:7.9028 
1 1:-0.516281 2:0.478359 3:-0.103114 4:3.44812 5:-0.648239 6:-4.34582 7:1.26739 8:7.99958 
1 1:-0.524713 2:0.547036 3:-0.153651 4:3.35475 5:-0.6231 6:-4.43321 7:1.28505 8:7.98603 
1 1:0.302392 2:0.67747 3:-2.34501 4:1.40068 5:1.4296 6:5.68747 7:1.76495 8:2.06526 
1 1:0.296027 2:0.695577 3:-2.35023 4:1.41001 5:1.43011 6:5.67776 7:1.76682 8:2.07111 
1 1:0.289663 2:0.713684 3:-2.35546 4:1.41934 5:1.43062 6:5.66804 7:1.76869 8:2.07695 
1 1:-0.425118 2:2.23077 3:-2.6728 4:4.60055 5:0.456825 6:-0.721087 7:-1.8974 8:9.44624 
1 1:-0.502302 2:2.08198 3:-2.8402 4:-6.49774 5:-0.874624 6:5.79482 7:-0.477457 8:-3.29157 
1 1:-0.439367 2:2.05023 3:-2.83737 4:-6.50246 5:-0.852056 6:5.69209 7:-0.547762 8:-3.25119 
1 1:-0.404021 2:2.01015 3:-2.6942 4:-6.48557 5:-0.779896 6:5.4084 7:-0.565654 8:-3.06708 
1 1:-0.48269 2:2.04984 3:-2.69774 4:-6.47967 5:-0.808106 6:5.53682 7:-0.477773 8:-3.11756 
0.31868289670257099 1:-0.561359 2:2.08953 3:-2.70129 4:-6.47378 5:-0.836317 6:5.66523 7:-0.389892 8:-3.16804 
1 1:-0.63205 2:2.16968 3:-2.98762 4:-6.50755 5:-0.980637 6:6.2326 7:-0.354109 8:-3.53626 
1 1:-0.0178417 2:-0.326872 3:0.57486 4:3.54488 5:-0.195512 6:-1.72573 7:1.5708 8:7.48611 
0.68671431729786148 1:0.228499 2:-0.180901 3:0.592957 4:4.92524 5:0.274617 6:4.57906 7:2.80146 8:-1.31802 
1 1:-0.116328 2:-0.466519 3:0.805959 4:5.98537 5:-0.585577 6:4.67277 7:2.63806 8:-1.92592 
1 1:0.146499 2:0.639342 3:-0.313812 4:-6.59091 5:-0.0177943 6:3.80916 7:1.70987 8:8.44161 
1 1:0.207935 2:0.694334 3:-0.256083 4:-6.60117 5:-0.0355168 6:3.76664 7:1.71479 8:8.45534 
1 1:-0.711587 2:0.0582348 3:0.317897 4:0.680372 5:0.0603788 6:-4.86999 7:0.80538 8:-17.4788 
1 1:-0.139493 2:-0.284301 3:0.689794 4:-5.6027 5:0.353791 6:-6.27102 7:0.852072 8:-11.7551 
1 1:-0.0690533 2:1.56626 3:0.305131 4:5.661 5:0.26214 6:-4.61706 7:-0.72017 8:-2.56375 
0.6398195314128432 1:-0.486001 2:1.38967 3:-0.858674 4:4.10843 5:0.920866 6:4.11405 7:1.84339 8:-16.9187 
1 1:-0.546287 2:1.52314 3:-0.865829 4:4.19911 5:0.845798 6:4.18075 7:1.73023 8:-16.908 
1 1:-0.48843 2:1.37913 3:-0.872524 4:4.09143 5:0.980302 6:4.0855 7:1.87784 8:-16.9618 
1 1:-0.50341 2:1.494 3:-1.67699 4:-5.73946 5:-0.305381 6:0.0810907 7:-0.455677 8:6.4605 
1 1:-0.522794 2:1.51572 3:-1.65383 4:-5.72928 5:-0.284682 6:0.0758168 7:-0.472632 8:6.45589 
1 1:-0.522794 2:1.51572 3:-1.65383 4:-5.72928 5:-0.284682 6:0.0758168 7:-0.472632 8:6.45589 
1 1:0.13842 2:1.52513 3:-0.599644 4:-1.46104 5:0.151062 6:1.99244 7:2.08733 8:-14.4637 
1 1:-0.0534532 2:0.127592 3:0.374076 4:1.05954 5:-0.527824 6:5.51062 7:-2.59157 8:-8.32933 
1 1:-0.0518329 2:0.130893 3:0.368306 4:1.06744 5:-0.520076 6:5.51145 7:-2.58018 8:-8.32961 
1 1:-0.114265 2:0.129156 3:0.314305 4:0.976129 5:-0.531015 6:5.62501 7:-2.49096 8:-8.21641 
1 1:-0.111024 2:0.135757 3:0.302765 4:0.991925 5:-0.515519 6:5.62666 7:-2.46818 8:-8.21697 
0.094196758115709323 1:-0.14143 2:0.13654 3:0.27288 4:0.950219 5:-0.517115 6:5.68386 7:-2.41788 8:-8.16051 
0.32540087569345622 1:-0.189687 2:0.777263 3:-2.15169 4:2.81921 5:1.36216 6:4.55358 7:1.73865 8:3.11144 
1 1:-0.0988015 2:0.798355 3:-2.19547 4:2.53541 5:1.37851 6:4.77238 7:1.75756 8:2.91523 
0.34934789201130506 1:-0.0816151 2:1.77106 3:-2.55426 4:2.96138 5:0.496694 6:2.4492 7:0.986358 8:-3.54445 
1 1:0.351556 2:1.7097 3:-2.59014 4:2.94949 5:0.361495 6:1.87011 7:0.810594 8:-3.43932 
1 1:0.313313 2:1.72313 3:-2.52555 4:2.88612 5:0.331797 6:1.965 7:0.798919 8:-3.42628 
1 1:0.0792636 2:1.18458 3:-2.11307 4:-4.17136 5:0.905844 6:-1.6594 7:2.36929 8:-16.0663 
1 1:0.197692 2:1.32515 3:-2.08403 4:-4.19508 5:0.953317 6:-1.5014 7:2.43228 8:-16.0155 
1 1:0.0996843 2:1.09344 3:-2.05369 4:-4.19418 5:0.898318 6:-1.69441 7:2.38597 8:-16.006 
1 1:0.197692 2:1.32515 3:-2.08403 4:-4.19508 5:0.953317 6:-1.5014 7:2.43228 8:-16.0155 
1 1:0.0384222 2:1.36686 3:-2.23181 4:-4.12571 5:0.920896 6:-1.58939 7:2.33593 8:-16.1869 
1 1:-0.714145 2:0.900617 3:-0.120652 4:-0.658861 5:0.62116 6:2.35318 7:0.675323 8:-13.8928 
1 1:0.287214 2:0.476167 3:0.504912 4:4.77749 5:0.665683 6:-5.42048 7:-0.162292 8:12.4148 
1 1:0.293588 2:0.453716 3:0.499506 4:4.75103 5:0.649613 6:-5.58545 7:-0.029025 8:12.4111 
1 1:0.309612 2:0.508307 3:0.523218 4:4.80037 5:0.58745 6:-5.57782 7:0.159101 8:12.4208 
1 1:0.314436 2:0.546828 3:0.537777 4:4.83827 5:0.564403 6:-5.49152 7:0.186531 8:12.4275 
1 1:-0.56206 2:1.32772 3:-1.25995 4:-1.74205 5:-0.732558 6:-2.21418 7:-1.95528 8:-6.93179 
1 1:-0.56206 2:1.32772 3:-1.25995 4:-1.74205 5:-0.732558 6:-2.21418 7:-1.95528 8:-6.93179 
1 1:-0.657051 2:1.77544 3:-2.05183 4:-5.93429 5:0.194633 6:4.52482 7:1.0571 8:6.3976 
1 1:-0.689218 2:1.4446 3:-2.12216 4:-5.70878 5:0.108278 6:4.50229 7:1.10826 8:6.66742 
1 1:-0.68708 2:1.55615 3:-2.07073 4:-5.73574 5:0.144217 6:4.66549 7:1.24651 8:6.65066 
0.69083042692412289 1:-0.489346 2:1.6173 3:-1.8619 4:-6.05561 5:0.38152 6:4.18378 7:1.16737 8:5.38948 
1 1:-0.679575 2:0.0849806 3:0.27062 4:-4.88187 5:0.682166 6:5.82146 7:0.915924 8:-4.49916 
1 1:-0.679575 2:0.0849806 3:0.27062 4:-4.88187 5:0.682166 6:5.82146 7:0.915924 8:-4.49916 
1 1:-0.737153 2:0.586058 3:0.150456 4:-5.50492 5:-0.286757 6:-5.61415 7:1.90204 8:13.0074 
1 1:-0.730779 2:0.632874 3:0.174468 4:-5.5088 5:-0.281466 6:-5.65147 7:1.90065 8:12.9707 
1 1:-0.0763553 2:0.15871 3:0.856099 4:2.49325 5:0.0107708 6:5.1081 7:1.02968 8:2.49123 
1 1:-0.0787725 2:0.178684 3:0.855661 4:2.73447 5:0.0532279 6:5.13171 7:0.883458 8:2.25983 
1 1:-0.077161 2:0.165368 3:0.855953 4:2.57366 5:0.0249232 6:5.11597 7:0.980937 8:2.4141 
1 1:0.0823393 2:0.149501 3:0.838832 4:2.64018 5:-0.10597 6:5.1208 7:0.972205 8:2.49878 
1 1:0.122361 2:0.840221 3:-0.220769 4:-5.76872 5:0.247026 6:-5.70843 7:1.27631 8:-6.31891 
1 1:-0.405941 2:1.36972 3:-0.0423194 4:-1.54773 5:-0.117077 6:6.31404 7:-0.161171 8:7.30159 
1 1:0.0530642 2:1.54797 3:0.404555 4:-1.40754 5:-0.65259 6:6.26522 7:-0.296436 8:6.9535 
1 1:-0.176439 2:1.45885 3:0.181118 4:-1.47763 5:-0.384833 6:6.28963 7:-0.228803 8:7.12755 
1 1:-0.233475 2:1.38446 3:0.287221 4:-1.32987 5:-0.434438 6:6.18503 7:-0.357536 8:7.31404 
0.88804993216377148 1:-0.236404 2:1.36122 3:0.184954 4:-1.43611 5:-0.196937 6:6.16895 7:-0.189937 8:7.26019 
1 1:-0.0069008 2:1.45034 3:0.408391 4:-1.36602 5:-0.464693 6:6.14454 7:-0.25757 8:7.08615 
1 1:-0.206082 2:1.35792 3:0.344999 4:-1.29159 5:-0.407429 6:6.11858 7:-0.355011 8:7.33685 
1 1:-0.259743 2:1.47472 3:0.118615 4:-1.48032 5:-0.463654 6:6.37021 7:-0.29822 8:7.17517 
1 1:-0.343048 2:1.49059 3:0.0561127 4:-1.48301 5:-0.542474 6:6.4508 7:-0.367636 8:7.22279 
1 1:-0.261208 2:1.4631 3:0.0674814 4:-1.53344 5:-0.344903 6:6.36217 7:-0.21442 8:7.14825 
1 1:-0.345976 2:1.46735 3:-0.0461551 4:-1.58925 5:-0.304973 6:6.43472 7:-0.200037 8:7.16894 
1 1:0.113029 2:1.6456 3:0.40072 4:-1.44906 5:-0.840486 6:6.3859 7:-0.335303 8:6.82086 
1 1:-0.235453 2:0.171247 3:0.873293 4:2.38653 5:0.134588 6:5.09934 7:1.06278 8:2.44511 
0.46583589564928468 1:-0.23505 2:0.167918 3:0.873366 4:2.34633 5:0.127512 6:5.0954 7:1.08715 8:2.48368 
1 1:0.186345 2:1.46139 3:0.715335 4:-2.41182 5:0.314301 6:-2.35211 7:0.193386 8:-9.24578 
1 1:0.186345 2:1.46139 3:0.715335 4:-2.41182 5:0.314301 6:-2.35211 7:0.193386 8:-9.24578 
1 1:-0.421982 2:1.01579 3:0.462537 4:-3.04543 5:-0.75769 6:0.924514 7:0.746697 8:13.4216 
0.23706718435193677 1:-0.288744 2:0.640969 3:0.351202 4:-4.67044 5:-0.619232 6:0.515845 7:1.12724 8:13.9893 
1 1:0.0768184 2:0.2644 3:0.537086 4:-3.64131 5:0.348979 6:-4.22415 7:0.302836 8:8.51929 
1 1:0.141651 2:0.313919 3:0.561318 4:-3.63094 5:0.303248 6:-4.20924 7:0.407081 8:8.4949 
1 1:-0.246685 2:1.96673 3:-2.38818 4:-5.96313 5:-0.686833 6:0.043313 7:-0.625433 8:17.4394 
1 1:-0.0146745 2:0.748601 3:-1.51397 4:6.48648 5:-0.166393 6:-1.34158 7:2.13026 8:-6.52221 
1 1:0.103603 2:0.891074 3:-1.43397 4:6.46689 5:-0.16265 6:-1.26934 7:2.23824 8:-6.40061 
1 1:-0.225526 2:-0.0669763 3:1.06393 4:3.70165 5:-0.868466 6:-1.27794 7:1.37623 8:6.23136 
0.83149938957860869 1:-0.268608 2:-0.216089 3:0.994951 4:3.7001 5:-0.800195 6:-1.29515 7:1.46605 8:6.37552 
1 1:-0.312279 2:1.67929 3:-0.456897 4:1.71276 5:1.21508 6:0.935476 7:-0.221676 8:2.63928 
1 1:0.106974 2:1.42092 3:-2.03493 4:1.47091 5:0.758887 6:-1.48372 7:1.473 8:11.2131 
1 1:0.434584 2:1.24723 3:-2.17634 4:1.5155 5:1.03497 6:-1.38782 7:1.76252 8:11.3024 
1 1:0.224315 2:1.22371 3:-2.25515 4:1.43158 5:0.74628 6:-1.51418 7:1.89544 8:11.3199 
1 1:0.217376 2:1.37366 3:-0.762042 4:-4.60118 5:-0.347064 6:5.59337 7:1.99253 8:8.18225 
1 1:-0.500934 2:1.19214 3:0.921993 4:5.054 5:-0.392335 6:-1.51853 7:2.35011 8:5.83612 
1 1:0.0970763 2:1.31375 3:-2.73491 4:2.67711 5:-0.236865 6:0.744221 7:1.32344 8:-4.82582 
1 1:-0.000928842 2:1.22998 3:-2.75779 4:2.59956 5:-0.21074 6:0.725622 7:1.29967 8:-4.73772 
0.94336423280844395 1:0.185312 2:-0.403316 3:0.681136 4:2.61068 5:-0.863186 6:-1.86732 7:1.42989 8:8.43163 
1 1:0.25529 2:0.821775 3:-0.662424 4:-4.82076 5:-0.365169 6:5.80203 7:2.5067 8:-4.3707 
1 1:0.0972441 2:0.742294 3:-0.324966 4:-6.1114 5:0.730581 6:-6.00666 7:-2.00862 8:1.27902 
1 1:0.101743 2:0.694443 3:-0.183406 4:-6.2535 5:0.890395 6:-5.9666 7:-2.10822 8:1.23844 
1 1:0.132855 2:0.634823 3:-0.188376 4:-6.30706 5:0.94394 6:-5.95633 7:-2.06662 8:1.22326 
1 1:0.260777 2:1.70495 3:-3.0109 4:-3.19548 5:-0.236966 6:2.09701 7:0.558139 8:18.1199 
1 1:0.274911 2:1.68469 3:-2.99608 4:-3.20049 5:-0.248035 6:2.11272 7:0.540135 8:18.1217 
1 1:-0.00138168 2:1.5938 3:0.165836 4:-2.16861 5:1.08549 6:-0.0807989 7:-0.376084 8:-6.80509 
1 1:-0.411687 2:-0.220874 3:0.860379 4:-6.6771 5:-0.511786 6:-5.85758 7:2.08822 8:14.3034 
1 1:-0.485302 2:-0.259244 3:0.769729 4:-6.67326 5:-0.448113 6:-5.75564 7:1.93305 8:14.2042 
1 1:-0.390405 2:-0.161733 3:0.763612 4:-6.67063 5:-0.56063 6:-5.64421 7:2.25096 8:14.1678 
1 1:-0.474361 2:0.936963 3:-0.772381 4:5.60824 5:0.096523 6:-5.76748 7:1.23625 8:-12.7721 
1 1:0.112055 2:1.24285 3:-1.10236 4:-5.86031 5:0.794164 6:-6.23835 7:-0.588977 8:-4.87202 
0.88617432782540662 1:0.0446389 2:1.24016 3:-0.99347 4:-5.81377 5:0.723872 6:-6.26979 7:-0.547049 8:-4.85454 
1 1:0.0161524 2:1.66778 3:-0.298666 4:-5.73676 5:0.162656 6:-5.89825 7:-0.647544 8:-3.79007 
1 1:-0.180795 2:0.92357 3:-0.0665633 4:2.58362 5:-1.13147 6:0.600089 7:-0.784346 8:0.910993 
1 1:-0.158539 2:1.20042 3:0.228302 4:3.06967 5:-1.11137 6:0.568581 7:-0.384665 8:1.16992 
1 1:-0.1681 2:0.877419 3:-0.207371 4:2.41556 5:-1.04106 6:0.591607 7:-0.961419 8:0.936697 
1 1:-0.166309 2:0.874075 3:-0.202149 4:2.41686 5:-1.0353 6:0.593176 7:-0.953551 8:0.938814 
1 1:-0.359212 2:0.331328 3:0.184678 4:-5.18355 5:0.0586678 6:-3.70964 7:-1.76828 8:-3.26019 
1 1:-0.33791 2:0.316453 3:0.246963 4:-5.18101 5:0.0787206 6:-3.7469 7:-1.88271 8:-3.2603 
1 1:-0.352111 2:0.32637 3:0.20544 4:-5.1827 5:0.0653521 6:-3.72206 7:-1.80642 8:-3.26022 
1 1:-0.768357 2:0.0762111 3:0.459833 4:-6.68627 5:-0.125685 6:-5.40573 7:1.30609 8:13.206 
1 1:0.0972895 2:1.85727 3:-0.695603 4:2.27562 5:-0.893244 6:3.57833 7:0.232201 8:-2.18446 
1 1:0.0756738 2:1.88592 3:-1.51554 4:1.85381 5:-0.265383 6:2.98841 7:0.456876 8:-3.1241 
1 1:-0.405032 2:1.75907 3:-0.109733 4:1.18354 5:-1.14548 6:2.7358 7:0.118577 8:-2.81918 
1 1:0.0356997 2:0.998758 3:-0.444979 4:-4.15016 5:0.677968 6:-4.00694 7:-0.81841 8:9.11836 
1 1:0.0941836 2:1.26705 3:-0.680175 4:-4.14084 5:0.514846 6:-3.85539 7:-0.781619 8:9.13784 
1 1:-0.460909 2:0.506114 3:0.43885 4:-0.93513 5:1.20919 6:5.0167 7:0.0622958 8:8.28761 
1 1:-0.615068 2:0.638013 3:0.298469 4:-1.08803 5:1.15885 6:5.22452 7:0.0859143 8:8.22292 
1 1:-0.343668 2:1.13673 3:-2.46222 4:2.56106 5:0.461976 6:3.36831 7:2.42019 8:-4.14783 
1 1:0.248671 2:1.48928 3:-0.693477 4:-4.01911 5:0.0347553 6:6.35966 7:1.84681 8:-9.04453 
1 1:0.391108 2:1.21789 3:-0.535989 4:-4.02141 5:0.383139 6:6.36092 7:1.87107 8:-8.81086 
0.20452498059644988 1:-0.272246 2:1.12495 3:-1.2882 4:-5.30816 5:-1.09214 6:6.62436 7:0.857948 8:-10.3714 
0.14003782127160949 1:-0.2346 2:1.6677 3:-2.2892 4:-3.67737 5:-0.444142 6:-6.60217 7:-1.34305 8:-12.7133 
1 1:-0.362354 2:1.09206 3:-2.68808 4:4.91467 5:-0.566436 6:-1.11943 7:2.42301 8:-15.6121 
1 1:-0.207116 2:0.980831 3:-2.72712 4:5.28365 5:-1.08568 6:-0.792744 7:2.41321 8:-15.2108 
1 1:-0.20997 2:0.983733 3:-2.71341 4:5.30386 5:-1.08506 6:-0.82414 7:2.41634 8:-15.2118 
1 1:0.121687 2:0.862419 3:-0.336514 4:-4.17755 5:0.888393 6:-1.40597 7:-1.85785 8:12.3502 
1 1:-0.59577 2:1.32812 3:-0.905513 4:5.67149 5:0.592602 6:4.3572 7:-2.56452 8:2.42791 
1 1:-0.598984 2:1.34066 3:-0.916379 4:5.62803 5:0.550197 6:4.3741 7:-2.52053 8:2.47137 
1 1:-0.485954 2:0.881614 3:0.600882 4:-0.405879 5:-0.765257 6:-2.10584 7:2.65536 8:14.5787 
1 1:-0.693761 2:0.910015 3:-0.113934 4:-0.5984 5:0.613673 6:2.35761 7:0.748724 8:-13.8811 
1 1:0.0342785 2:1.59262 3:-0.638585 4:-1.03126 5:0.341863 6:2.17502 7:2.09231 8:-14.3699 
1 1:0.0810106 2:1.63587 3:-2.22397 4:-3.4287 5:-0.744219 6:-6.63502 7:-1.35393 8:-11.0345 
1 1:-0.166303 2:0.604522 3:-0.653217 4:6.2716 5:0.501439 6:-3.63463 7:1.74147 8:-7.88785 
1 1:0.0692123 2:1.57498 3:-0.574169 4:6.64796 5:0.323462 6:-2.91728 7:1.9104 8:-8.36402 
1 1:0.0864386 2:1.57616 3:-0.523257 4:6.64536 5:0.23343 6:-2.87001 7:1.90755 8:-8.40414 
1 1:-0.0615484 2:1.10819 3:-1.18185 4:-0.032816 5:-0.454737 6:5.89981 7:-1.55232 8:-4.59669 
1 1:-0.0121975 2:1.17402 3:-1.24062 4:-0.0414311 5:-0.445352 6:5.84461 7:-1.55527 8:-4.42998 
1 1:-0.537636 2:1.53793 3:-1.82541 4:1.56453 5:-0.24288 6:2.58077 7:0.0296329 8:-7.51498 
1 1:-0.456736 2:0.599938 3:-0.234849 4:-6.13742 5:-0.329624 6:6.73475 7:1.06303 8:-13.1162 
1 1:-0.459222 2:0.59075 3:-0.28779 4:-6.08264 5:-0.300669 6:6.634 7:1.07205 8:-13.1411 
1 1:-0.0349717 2:1.51834 3:0.0415309 4:-5.69309 5:-0.791615 6:6.49164 7:1.88772 8:-13.8907 
0.35719207144223747 1:0.0641774 2:0.843583 3:-1.46063 4:6.47342 5:-0.163898 6:-1.29342 7:2.20225 8:-6.44114 
1 1:0.292326 2:1.13753 3:-0.0637296 4:-6.72028 5:0.541674 6:-0.70497 7:1.04115 8:-11.9081 
1 1:0.312606 2:1.14735 3:-0.0768996 4:-6.71946 5:0.535361 6:-0.697561 7:1.04645 8:-11.9118 
1 1:-0.0690533 2:1.56626 3:0.305131 4:5.661 5:0.26214 6:-4.61706 7:-0.72017 8:-2.56375 
1 1:-0.246685 2:1.96673 3:-2.38818 4:-5.96313 5:-0.686833 6:0.043313 7:-0.625433 8:17.4394 
1 1:-0.00138168 2:1.5938 3:0.165836 4:-2.16861 5:1.08549 6:-0.0807989 7:-0.376084 8:-6.80509 
1 1:-0.490833 2:1.77701 3:-2.39638 4:2.77013 5:-0.00217612 6:-5.84215 7:-0.855396 8:15.8613 
0.21128376328233248 1:-0.614894 2:1.66445 3:-2.05543 4:3.22727 5:-0.679958 6:-6.69485 7:1.44197 8:15.1007 
0.94051660160075623 1:-0.290061 2:1.61174 3:-0.324784 4:5.29291 5:-0.647495 6:4.84181 7:0.695442 8:-16.0167 
1 1:-0.000231368 2:1.13091 3:-1.75836 4:2.62206 5:0.332933 6:6.37139 7:0.572279 8:12.0995 
1 1:0.355697 2:1.51379 3:-0.410154 4:2.53498 5:0.693068 6:3.327 7:0.709736 8:-8.84737 
1 1:-0.611764 2:1.23458 3:-1.68112 4:-4.65304 5:-0.221213 6:5.59927 7:1.99457 8:8.02129 
1 1:-0.611764 2:1.23458 3:-1.68112 4:-4.65304 5:-0.221213 6:5.59927 7:1.99457 8:8.02129 
1 1:-0.583089 2:1.24539 3:-1.64458 4:-4.64975 5:-0.22174 6:5.59384 7:1.99075 8:8.02418 
1 1:-0.457166 2:1.31016 3:-1.91774 4:3.28073 5:0.0563249 6:0.878119 7:-2.9483 8:-14.407 
1 1:-0.522202 2:1.66708 3:-2.09463 4:2.87969 5:1.13675 6:-6.37592 7:-2.74195 8:4.50726 
1 1:-0.630653 2:0.170665 3:0.382249 4:-0.00205583 5:0.482246 6:4.25376 7:2.11434 8:3.69496 
1 1:-0.6241 2:0.193422 3:0.318304 4:-0.0620468 5:0.524754 6:4.28419 7:2.11436 8:3.79852 
1 1:-0.183968 2:1.47319 3:-1.3722 4:4.24459 5:1.4535 6:6.1635 7:-1.58491 8:-17.5869 
0.95668653842840501 1:-0.565342 2:0.731544 3:-0.688778 4:1.98631 5:0.407095 6:-2.34876 7:2.73697 8:2.56498 
1 1:-0.479326 2:0.814192 3:-0.005641 4:-0.271386 5:0.0576193 6:-0.061801 7:-0.476744 8:-13.7875 
1 1:-0.489901 2:0.803937 3:-0.0219573 4:-0.302163 5:0.0781631 6:-0.035721 7:-0.44583 8:-13.8118 
1 1:-0.328313 2:0.953287 3:-0.652476 4:-3.42004 5:-0.985212 6:1.20592 7:-2.64502 8:7.84882 
1 1:-0.325149 2:0.953301 3:-0.641996 4:-3.42372 5:-0.988463 6:1.19968 7:-2.64944 8:7.82656 
0.6434820100673333 1:0.190844 2:1.08074 3:0.311929 4:-4.89373 5:-0.890418 6:-4.73767 7:1.36052 8:16.7472 
1 1:0.287111 2:0.927942 3:0.237794 4:-5.09792 5:-1.04013 6:-4.63325 7:1.49028 8:16.5608 
1 1:-0.0227424 2:1.75315 3:-2.22968 4:-3.52235 5:-0.72336 6:-6.67013 7:-1.47325 8:-10.8678 
1 1:-0.014984 2:1.40644 3:-1.42241 4:-0.328739 5:0.808538 6:1.88331 7:0.352561 8:10.0632 
1 1:-0.29138 2:0.953157 3:-0.66873 4:0.535761 5:0.602304 6:0.342641 7:-0.91414 8:10.152 
1 1:0.0770643 2:1.69599 3:-2.07447 4:5.66935 5:-0.590813 6:3.26303 7:-1.83335 8:-8.11983 
1 1:0.0585338 2:1.64444 3:-2.03673 4:5.70322 5:-0.581031 6:3.28918 7:-1.80317 8:-8.05108 
1 1:-0.0513772 2:0.862384 3:-0.299922 4:0.151125 5:-0.16936 6:2.98674 7:-2.49233 8:17.2582 
1 1:-0.158539 2:1.20042 3:0.228302 4:3.06967 5:-1.11137 6:0.568581 7:-0.384665 8:1.16992 
1 1:0.355072 2:1.30706 3:1.02502 4:4.53164 5:-0.800158 6:0.475578 7:0.610176 8:2.1422 
0.19965736863288436 1:-0.382267 2:1.44705 3:-0.130233 4:-6.55279 5:1.07433 6:0.484743 7:1.32784 8:-7.68645 
1 1:-0.382267 2:1.44705 3:-0.130233 4:-6.55279 5:1.07433 6:0.484743 7:1.32784 8:-7.68645 
1 1:0.139518 2:0.949777 3:-0.267468 4:1.50702 5:-0.644361 6:-5.82186 7:-0.782414 8:9.20841 
1 1:0.150098 2:0.956968 3:-0.241691 4:1.43981 5:-0.682483 6:-5.86196 7:-0.813485 8:9.2113 
1 1:0.0587719 2:1.23301 3:-1.22204 4:-5.7922 5:0.33808 6:-0.820363 7:-1.80957 8:-1.30546 
1 1:0.0587719 2:1.23301 3:-1.22204 4:-5.7922 5:0.33808 6:-0.820363 7:-1.80957 8:-1.30546 
1 1:0.0165159 2:0.810726 3:-1.16706 4:-6.36002 5:-0.187951 6:0.812827 7:1.44136 8:14.223 
1 1:0.226146 2:0.769405 3:-0.431162 4:5.36651 5:0.924989 6:6.28995 7:-0.913072 8:0.210343 
1 1:0.0227683 2:1.66953 3:-0.477911 4:2.30016 5:0.00141571 6:-1.99493 7:-0.363427 8:-17.8777 
1 1:-0.122589 2:1.75028 3:-1.75262 4:-3.46552 5:0.572858 6:2.16597 7:1.42809 8:-18.5422 
1 1:-0.239883 2:1.10667 3:0.531909 4:-3.92949 5:0.468766 6:4.07304 7:2.97905 8:1.18475 
1 1:-0.198424 2:1.12909 3:0.403927 4:-3.73558 5:0.363178 6:4.14209 7:2.96073 8:0.951704 
0.14195866434307333 1:-0.0543131 2:1.45899 3:-0.501532 4:-4.14643 5:0.589893 6:5.70329 7:2.24654 8:-3.8749 
1 1:0.25529 2:0.821775 3:-0.662424 4:-4.82076 5:-0.365169 6:5.80203 7:2.5067 8:-4.3707 
1 1:-0.200057 2:1.33617 3:0.324014 4:5.26328 5:0.695557 6:-4.83345 7:2.01986 8:11.9948 
1 1:0.168184 2:1.7244 3:1.10614 4:6.27556 5:0.309599 6:-3.41571 7:0.715356 8:12.9711 
1 1:0.196433 2:1.7131 3:1.04701 4:6.28767 5:0.276522 6:-3.4287 7:0.781712 8:12.8961 
1 1:-0.353612 2:1.25391 3:-1.26307 4:2.26633 5:0.544952 6:6.82831 7:0.432932 8:-7.76617 
1 1:-0.603489 2:1.11048 3:-0.331797 4:-4.51122 5:-0.0142727 6:5.91547 7:0.342028 8:-4.03034 
1 1:-0.531596 2:1.37399 3:-1.38391 4:-1.55214 5:-0.589061 6:4.79614 7:-1.82125 8:-12.554 
1 1:0.342569 2:1.17788 3:-0.37819 4:-5.40331 5:0.695506 6:-1.15224 7:2.13024 8:8.16019 
1 1:-0.518314 2:1.39113 3:-1.30221 4:-6.33711 5:0.945249 6:-0.0766248 7:2.85364 8:9.35617 
1 1:-0.518314 2:1.39113 3:-1.30221 4:-6.33711 5:0.945249 6:-0.0766248 7:2.85364 8:9.35617 
1 1:-0.53235 2:2.22974 3:-2.73856 4:4.6349 5:0.348661 6:-0.671973 7:-1.77418 8:9.20925 
1 1:-0.129865 2:1.57852 3:-0.743748 4:-5.73971 5:0.31038 6:-4.86358 7:2.12103 8:-6.61004 
1 1:-0.0438294 2:0.508889 3:0.848087 4:-2.04534 5:0.572096 6:6.47983 7:0.258828 8:-9.4123 
1 1:0.0883034 2:1.55638 3:0.206827 4:5.69325 5:0.175289 6:-4.77063 7:-0.824567 8:-2.48226 
1 1:0.225842 2:1.14226 3:-2.00592 4:-4.13101 5:0.993588 6:-1.5565 7:2.52246 8:-15.9063 
1 1:0.225842 2:1.14226 3:-2.00592 4:-4.13101 5:0.993588 6:-1.5565 7:2.52246 8:-15.9063 
1 1:-0.634232 2:1.60756 3:-2.02236 4:-5.89221 5:0.186914 6:4.53265 7:1.14205 8:6.50769 
1 1:-0.0902053 2:1.46621 3:0.345888 4:-1.36871 5:-0.543514 6:6.22512 7:-0.326986 8:7.13377 
1 1:-0.103339 2:1.51135 3:0.261585 4:-1.44393 5:-0.558122 6:6.31772 7:-0.297328 8:7.06434 
1 1:-0.393342 2:0.173797 3:0.890706 4:2.15919 5:0.237177 6:5.07877 7:1.16899 8:2.51469 
1 1:0.297327 2:1.39217 3:0.592241 4:-2.29514 5:0.222641 6:-2.33426 7:0.327766 8:-9.20967 
